0.272256039437 0.0741298594582 -0.0486437558281 -0.85766095563 0.129395628217 -0.267597834692 0.0340644698439 0.123874629544 0.00815048552668 0.340749386449 0.781886859626 0.044186062959 0.0729607568702 0.758972695624 0.00893007586472 -0.145821606687 -0.153745876544 0.112874732084 0.191176563898 0.0996839175313 -0.476039195937 -0.255210964085 0.122312338719 -0.391995708672 0.233153548354 -0.0378742147028 0.0689492073643 -0.0516742787812 -0.00146423788353 -0.0711545418293 0.241549488426 -0.373839653613 -0.180478519302 0.346365331751 0.0185086034706 -0.310636180016 -0.405010566022 -0.267151609937 0.0596198226225 0.233026112736 0.0736379103906 0.00572783294294 -0.460346752223 -0.102526418938 -0.134767582432 -0.631221032535 0.24055825324 0.334285616728 0.535765183331 0.288811266328 -0.0788942423765 0.176730877513 0.135119107276 0.396236340173 0.076524339206 -0.103627967714 0.61988869541 0.149364300293 -0.356790820087 0.434810946094 -0.546020755398 -0.0116865117828 0.441853712904 -0.0525205985421 -0.188201564013 -0.0423361130006 -0.48644089615 0.257975812043 0.132000438807 0.222411919849 0.147013303492 0.152047902336 0.205131460679 -0.391597430741 -0.195864149325 -0.145563312152 -0.2217290888 -0.685686108119 0.137213343565 -0.165803391273 0.353790947094 -0.553134558547 0.0384112051494 0.380486949381 -0.22142152526 0.158474124406 0.248861895488 0.0215378046815 -0.0925882232263 0.332674390584 -0.59457478732 0.179287841299 0.358496101187 0.195569029138 -0.247420605096 0.120582194702 -0.349705451116 -0.0654007076945 0.301168904761 -0.428386364864 0.0119922984548 0.21953707735 -0.414947655002 0.0874941612955 0.489386124624 -8.94128299886e-07 0.211053014389 0.0619933170346 -0.278213598692 0.325618713565 -0.0759659267798 -0.0325782820457 -0.0761395549014 -0.392932974236 0.620829421078 0.484687372103 -0.0014762664109 -0.0570197777287 -0.255381460558 -0.0831238274082 0.297659298167 -0.603268732502 0.239567215325 -0.435878968501 0.249880853294 0.239289584911 -0.520537309281 0.386460066556 -0.316448387543 -0.362134971571 -0.542041408851 -0.114919197387 0.419620257814 -0.211593071471 -0.485964217053 0.0893694115768 -0.337782877972 -0.556938456978 0.467178327112 0.164960303736 -0.0227524678318 -0.0745044348606 0.211826042469 0.199569416273 -0.0404121799277 -0.0647406379892 0.189981637807 -0.0523020614799 0.105087356536 -0.400822842486 0.0341215511091 -0.250553770377 0.215938503784 -0.379030236409 0.0538538719219 -0.0308142244502 0.147405624327 0.139183183149 -0.118869477607 0.306731164833 0.272455606488 -0.309749272008 -0.155900749503 0.102798058784 -0.0980644720815 0.24869392233 -0.247367178745 -0.177092221961 -0.123789844057 -0.235827290413 0.0112415519489 -0.134894516147 0.0843483759417 0.0889725642373 -0.0450360265578 -0.215097642597 -0.32882850415 -0.119634044557 0.303180416205 0.116197946308 -0.287544746121 0.266314564716 0.218545214677 0.291380114934 0.165307391939 0.266283542249 0.092920138577 -0.202334874191 0.513206477386 0.338646081695 -0.0214098578967 0.364338335345 -0.277187764711 0.196616995044 0.288628192519 0.207972973577 0.166725461279 -0.0624878579462 -0.201080939521 -0.170578493063 0.122635785089 0.0387264758677 -0.0658117423309 0.352074459913 -0.0622173507524 0.249422260588 0.231352252974 0.046415120498 0.502269562365 0.149389817557 -0.0827774057096 0.377651527032 -0.245341536239 0.000275753417833 0.649990856566 -0.0012741424881 -0.134892483692 0.428046311964 -0.30014192944 -0.344904143494 -0.111103291019 -0.619082645494 -0.354037452985 0.205004427949 0.0178077473166 0.0573713332548 0.276780523494 0.915906870188 -0.315348791332 0.108549424369 -0.00288542617927 -0.127399173098 -0.00397748983151 0.701570047466 0.0508005252598 -0.0221099996258 -0.518711573689 0.304533548142 0.790296717607 -0.208643028959 0.223819388486 -0.675537297822 -0.0711806870641 -0.220461588721 -0.121693682088 0.531204331873 0.00723601631937 -0.149784387526 -0.118343098406 0.326171258416 -0.152397927236 0.372997705569 0.387899746606 -0.159287482303 -0.347192507078 -0.0551167624917 -0.308577054727 -0.00963635454638 -0.253021378033 0.40282287009 0.120465438249 0.398417631457 0.317622957726 -0.0512114808235 -0.125201158414 0.421761389523 0.765441121618 0.161422409655 0.457415048222 0.0924572829766 -0.0682599084653 -0.168191583198 0.480118803531 -0.156950595472 0.184668492305 0.165627936676 -0.587436797715 0.193235786343 0.626511173768 -0.225823417718 0.109386196399 0.130896602103 0.0333818293444 0.151685876213 -0.182444199523 0.158069179474 0.036334349632 -0.583752699631 0.171489812522 -0.557739245711 0.2242486272 -0.252229530379 -0.780302031397 -0.134068736636 0.00831790313652 0.34729389194 1.10751778131 0.39778429221 -0.427815105215 -0.0856695247911 0.166344172376 -0.41038332274 -0.208609861231 -0.102109073062 -0.0327704223261 0.206120870196 0.0521937515511 -0.0811599429071 0.0795711477811 0.719062668529 0.178330451731 -0.143617613173 -0.16939465301 0.100243237543 -0.143787718417 -0.272251480634 0.0166554173958 0.451966723211 0.536572372842 0.781597415401 0.370272366614 -0.212160451741 -0.133800777862 0.176813067997 0.0350262115411 -0.0884837782025 -0.00191598761825 0.232261915245 0.225622597381 -0.196665934403 -0.456442193436 -0.373330254246 0.359351271183 -0.333889103765 0.00496306565141 -0.876487233684 0.183137473894 -8.84210112494e-05 -0.304067988072 0.540282380173 -0.0332504014805 -0.269245752644 -0.424197304855 0.189137754149 -0.150420134938 0.0999714155908 -0.0575011771728 0.145922347579 -0.290039735762 -0.105515403139 0.0299509767194 0.311002893544 -0.0281478619151 -0.0745900186264 -0.370795033315 -0.227021470911 -0.382952063824 0.436773758868 0.1084304052 0.254363060576 -0.19194217772 0.26142060138 -0.10178940635 -0.270323417492 -0.24139381596 0.0901007715324 0.317612084168 -0.0632021435047 -0.25888051968 0.227619295127 -0.306961394915 0.025562138824 -0.372138817721 -0.167428111064 0.310259361738 -0.509266523871 0.159309390882 -0.00739301169835 0.365431610147 0.0695169072665 -0.137761955048 -0.260095333252 0.241331804802 -0.329602725231 -0.710481132437 0.342243295662 -0.253829597751 0.605280455136 -0.268621612253 0.191809577055 -0.0121900899095 0.0 0.425874275059 0.3192542656 0.105798471738 -0.00137026578074 -0.161410858105 -0.166828828203 -0.424036554544 0.5262456142 -0.119175071521 0.142354730488 0.192144968008 0.428274995846 0.278895432367 0.131576827839 0.336671263984 0.179928007876 0.336920512025 0.186701060081 0.126173739676 0.0591311194054 0.0275136572338 0.161766996769 -0.270859491241 -0.505811614351 0.0748848201188 0.141856013324 0.170181780968 0.114626806516 -0.0189547406579 0.0849689947244 -0.215999856223 0.256654949562 0.0790637959606 -0.146467369853 0.714507229036 0.401898128934 0.384540054357 0.0973079913397 -0.116553630886 0.282326633385 -0.0139629388242 -0.114199806962 0.155312095104 0.0893727520148 -0.38401478684 -0.0470339882828 0.328613660567 0.24951400278 0.309809582633 -0.104234392419 -0.185096607111 0.274222707306 -0.413551707234 -0.0824779127873 0.11986788862 0.142989123256 -0.103276993581 0.750263786424 -0.894728764624 -0.334628518089 0.859921149327 -0.166928376234 0.19296339778 0.041501962402 -0.238053890341 0.0641359306258 -0.0158606037127 -0.476246136902 -0.171798645337 0.528825590291 -0.217385592351 -0.436535096136 0.352643027697 -0.283988882029 0.148954045645 0.615252298726 0.616598644447 -0.0102028141469 0.171668535485 -0.107881723442 -0.0927627168834 -0.127673860684 -0.194980688526 -0.147355950626 -0.797429436388 0.0157126021384 0.182058711328 0.0581204587244 0.56777660399 -0.490088206098 -0.232188375102 0.0436755076346 0.169554734768 -0.258028399412 -0.35194908479 -0.412929546074 -0.145826886994 0.402962104192 0.104674596207 -0.268726275776 -0.257141169056 0.495841490722 0.041324986219 0.410801643277 -0.0280578608739 0.336688246458 -0.0776047205292 0.145308628883 -0.144477101046 -0.0896334445912 -0.0856598058448 0.345896920029 -0.125183576494 0.414775812586 -0.245934783657 -0.2420211824 0.0989799327638 -0.149488608908 0.260407575925 -0.256939653189 -0.416392924123 -0.0485389490329 0.586615760148 0.201970909695 0.0686867891852 0.382269809656 -0.0526870260407 0.379027574748 0.348569695306 -0.318438781091 0.337284050077 -0.0214854931852 0.0663515069517 -0.324688590883 0.197216600799 0.041204796628 0.352940078685 -0.209229575327 0.673112441962 -0.182249285635 0.221802551238 0.0426968108046 0.147031640925 -0.377186121352 0.162764787125 -0.124827694146 0.269555857829 -0.0554431585704 0.299233105169 0.125523160401 0.614030726571 -0.179573504239 0.867006936218 -0.196224934723 -0.677124459742 -0.189552450271 -0.111724953703 0.420311176706 -0.318283539599 0.118865648874 0.12000401714 -0.0596413323927 -0.0506173002145 0.401479699629 0.0490867752145 0.372880791358 0.126097858428 -0.0857511838902 0.517130981887 0.201728537705 -0.0998285411657 -0.0903092519162 -0.348341051338 -0.245443295471 -0.214952722765 0.0329024448216 -0.347669495817 0.360418282643 -0.361519459991 -0.574969671407 0.0978085798842 -0.0912227058759 0.166410610117 0.502527362223 0.190971813044 0.541520203439 0.17222137254 0.253484297509 -0.208360612795 0.153868240419 0.37937121873 0.0332737902673 -0.373179728227 0.259061596302 -0.349258683589 0.704310335755 0.50293772241 -0.195532800947 0.190268738305 0.371055180003 -0.110431210692 0.381366575609 0.203856818991 -0.0858152969004 -0.14221762914 0.585562763606 -0.0108829828898 0.264241893573 0.22518991592 0.489073193328 0.0988647398932 -0.244177425957 -0.243803982311 -0.130622671959 -0.220148493436 -0.224129701385 -0.523686248198 -0.0552362306547 0.448037123428 -0.387085504352 -0.0453218130264 -0.124676121673 0.565437712872 -0.314339136804 -0.702492280756 0.483182629832 -0.149567507513 0.304169153546 0.693844129127 -0.3412228078 0.00576408624519 -0.0802334717403 -0.0318746315496 0.44079760669 0.18645858449 -0.557974845179 -0.282981763003 -0.0609242294868 0.3215998615 0.10207679739 -0.0941999447911 0.301220112111 0.166199225518 0.387389870508 -0.0838557656672 0.103549673832 -0.022756774745 -0.0287153136955 -0.156551210751 0.593650929574 0.112786034013 0.555798607354 0.128410958579 -0.275243793316 -0.397236365878 0.104554540546 0.0387017628381 -0.578017850073 -0.111929322536 -0.182081002243 -0.222535433266 -0.0415120613465 -0.0748479501188 -0.163279201256 -0.266851829212 0.130449104953 0.212878193476 -0.215179239072 0.382744994293 -0.0543277275467 -0.117929461009 0.14611599748 -0.400189425168 0.741833141214 -0.373909521137 0.355754135984 0.107090436902 -0.184264241508 0.327830809769 -0.465782540931 0.570958964933 0.038850515743 0.0787672444218 -0.209678224199 0.24174431673 0.567240777067 0.575705839414 0.182640040234 -0.173891870757 -0.243599183015 0.270436781395 -0.0469965777594 0.225159962053 0.441248629428 0.0485175496617 -0.051453930405 0.081638092496 0.111438425078 0.643420363732 0.0606107063517 0.245207412324 0.392208530023 0.0208644739996 0.18825191259 0.0153932614308 -0.283421049534 0.0356387855976 -0.0256796395476 0.292461918468 0.112536597203 0.11361040248 -0.118392588865 -0.525993960208 0.0661777663174 0.259997267127 0.0243893673061 0.140797736788 0.551058392753 -0.12901078797 0.402298104626 -0.0260928639706 -0.0443065302596 0.387464095878 -0.0940229744804 0.440125148826 0.110041604556 0.0772893354526 0.115591182688 0.0989355944107 0.118740031015 -0.162210806927 0.243464732393 -0.338241395576 0.143670891702 0.0708430166755 -0.336565080557 0.461859500689 -0.130394279405 -0.0851818742351 0.0504889709982 -0.0355193866173 -0.189222746781 -0.338646665242 -0.0650923018402 0.59580837662 0.831856508 0.170267401064 -0.292963212918 0.148217817476 -0.279887820128 0.181087955573 0.251351970802 -0.182411637262 0.0781519853369 0.33485056454 0.569826526513 -0.193548784163 0.449924407278 0.240484587 0.360089015778 0.124295969435 -0.241710343609 0.0147466713642 0.132303776301 0.225059395677 0.439996250549 -0.263794176911 0.0969526947234 0.196557275998 -0.244701290527 0.377186714558 -0.0724244118019 -0.213284497522 -0.276628261427 -0.0578406873644 -0.13533208379 0.179023025639 -0.0985476830225 0.213669366926 -0.407960829486 0.291202537238 0.0830921609002 -0.41482242266 0.583944978314 0.146058825291 -0.110268645331 -0.111398791136 0.529933597448 0.525300901901 0.0306187004391 -0.537707492218 0.470918826553 0.213802563826 -0.258789312078 -0.0819347926011 -0.424399868496 0.170099613976 -0.367382326853 -0.237898736336 -0.440062112827 -0.0337544601616 -0.220374075955 0.568584813411 0.0158010228887 0.0368580399574 0.552495346411 0.369907906153 0.364741811503 -0.0692688915501 0.0408847698126 0.177320638581 0.2561218042 0.339769817373 0.18313631828 -0.614163902741 -0.196883380826 0.402182580251 0.0703639745674 0.467663701522 -0.111580032346 -0.0312206355512 0.759651272047 -0.246000983125 1.01717897585 -0.0770758786995 -0.435981092475 0.256566098777 -0.0855737322499 0.117877991245 0.176828260641 0.322089227102 0.318591845252 0.190277273364 0.251767145933 0.337244545535 -0.499102691676 -0.101165449044 0.066617810025 0.113385764869 0.20720609059 -0.20993649524 -0.095967555513 -0.161280366215 0.51102604634 -0.460515022888 -0.237807168447 0.398094228467 0.587376082656 0.095061465821 -0.295803160682 -0.000409164388011 -0.0606769806283 -0.201092903032 0.146526031409 -0.141512776927 0.440450440271 -0.27709667411 0.298734729621 0.480172833796 0.0897402339057 0.156238559758 -0.386522819422 0.392317457506 -0.297901115373 0.399374501131 0.216158160757 0.0419555922856 0.459210234237 0.353695032523 -1.21981236477 0.124266340039 0.378956135565 0.530886947399 0.235592860222 0.0807866996629 -0.402545365494 0.490249196692 -0.00622117839713 -0.293965765238 0.0457264819065 -0.197630745237 -0.299142644873 -0.369324513555 0.14330057826 0.327191786408 0.355063356847 0.147159042459 0.431324040088 -0.438104917859 0.0373242080435 -0.0699160408735 0.185923919255 -0.227048106853 -0.272917848213 -0.209310134045 0.581612213033 -0.219632286513 -0.284281986688 0.156994856351 -0.234058899077 -0.00885935662886 0.181268309709 -0.0102279153449 -0.507044341891 -0.0826543308065 0.711599994236 -0.320822808889 0.538076837288 0.182810708137 -0.594816353961 -0.0308023382392 -0.0320791672716 -0.0734162377044 0.122793682142 -0.125271843839 -0.149310955045 0.993686455286 -0.587002240334 0.329831598825 -0.477158485398 -0.37929145924 0.198610569812 -0.230326033482 -0.0946312604477 -0.515753396886 0.201306120429 0.507083016668 0.110746148526 -0.101493224502 -0.183587776159 0.114489357284 0.251915416244 -0.0447552458118 0.344410118101 0.565977427419 -0.229634949604 0.12295776103 0.12804218157 -0.204059579049 0.151524979189 -0.0972860201666 0.231978273158 -0.214641939461 0.599652180844 -0.364512586964 -0.383647715894 0.168147735894 -0.181823802757 0.771378034557 0.178281777883 -0.157251034247 0.0988020775761 -0.470791158563 -0.367485982666 0.338567206083 0.159487287904 -0.406161742457 0.0894651144956 -0.528977069028 -0.373998087446 0.255669540232 0.0519994283974 0.175473021632 0.385024535543 0.0969094887479 -0.0528651434129 -0.183687360468 0.595740944655 0.171830428744 0.0940171041959 -0.15792139658 1.03781063986 -0.437481713231 -0.0140108552664 -0.21926450608 -0.140044346542 0.239688206734 -0.011561562886 -0.552866052849 0.0278584588515 0.33524425922 -0.371400587693 0.063703330638 -0.0126293060624 -0.316810909089 0.179815543851 0.258182355793 -0.197339958202 0.45597783402 -0.206018140478 -0.0264209164854 0.22883149747 -0.111873215768 -0.172883821262 -0.0374606243209 0.0424861638005 -0.499215984083 -0.1374730226 -0.505380575022 0.317424612714 0.0489050130915 0.597904903879 0.149807104221 0.48486469771 0.239084450552 -0.405595301385 -0.463426786106 0.0939066250336 -0.530064055529 0.725523758374 0.0435112451815 0.0975793142636 0.30358278172 0.198421671788 0.392925523807 0.698004425425 0.126589329054 0.152632232597 0.387160479077 -0.32613012635 -0.094380936829 0.0598935596179 0.418919802871 0.101604972628 0.269429131302 0.622918906439 0.198084862877 0.199930660948 -0.187139544899 -0.204171103009 0.371719423993 0.0362645139665 0.0921882545667 -0.113435354143 0.0647210591734 0.060388049834 0.106930700953 -0.296484522117 -0.0108677556837 -0.203495270227 0.47912045951 -0.425095983502 -0.405731788938 -0.484205905485 0.0407157713709 0.35787401846 -0.175898283274 0.0769555845967 -0.0106735686686 -0.0496547627963 -0.0041619163154 0.401195004885 0.140054134279 0.321067920976 -0.161294509616 0.253788539543 0.383238136619 -0.304701612241 -0.150067401107 0.383879404979 0.354081785467 -0.111632458129 -0.0318771292013 0.04357752096 -0.405551705342 0.0298216155745 -0.0361225850624 0.0718584088876 -0.968580046971 -0.0514255634023 0.243570652234 0.322136683007 -0.0323419447938 -0.0205695818282 0.14619223533 -0.18499722958 0.22377922591 -0.381875855242 -0.363934836991 -0.230433844248 0.243948215265 -0.0398331705452 0.609069534086 -0.108742939764 -0.130376340989 -0.146154981067 -0.159390298485 0.490142470736 -0.111811238089 0.379040537712 0.00146336659942 0.480053427496 0.409452464433 -0.0918853985827 0.741730677867 -0.164103953666 0.0203525930219 0.167895015262 0.0450468746469 -0.546619473169 0.348851526702 -0.161066668123 0.665171345734 0.410801331773 -0.068514400486 0.157870953951 -0.25309250144 -0.0855427688363 -0.568288118971 0.487473443303 -0.0510089795424 -0.555585813743 -0.260510485978 0.407993661669 0.694277070089 0.165765477258 -0.146158541755 -0.10394102686 0.044568322335 -0.0199099904503 -0.299987764442 -0.144370563946 -0.48341121482 0.498327065193 0.0717523680433 0.184330735671 0.0762238206098 -0.121815700757 -0.0817896438611 -0.240615688393 -0.174725793619 -0.0939402037488 0.00576578426677 0.901593821993 0.260311496791 -0.267270436474 -0.0984424562163 0.163291862634 0.202246917114 -0.465150138928 0.0954654863682 0.132543091441 -0.496838866535 0.135211544252 -0.181216172513 -0.0463671592984 -0.0824278628154 0.723814169323 -0.36650767547 0.261633730178 0.253013215879 0.0763108114891 0.286246296069 -0.328585439415 -0.277246847657 0.517203888088 -0.209298025725 -0.225896026819 0.0822311931509 -0.0685111462888 -0.463039403158 -0.000224839925601 0.285624385632 0.16606933686 -0.300668206917 -0.150853563985 -0.379393176919 0.654995796052 0.348448310539 -0.491148648697 0.119412069822 0.0841020896844 -0.244054875571 0.0892184591872 0.946614355953 -0.200991795495 0.372692104634 -0.128052248727 0.870811089215 -0.0288518723363 -0.12964108207 -0.193809776554 0.461121082487 0.30900397819 -0.135952328961 0.538798063821 -0.0293482772103 -0.086138385881 0.715047182801 -0.369685588777 -0.0992570274992 0.126647726286 0.464849672536 -0.32502877457 0.665069417749 -0.238847436338 -0.36540002281 0.375777824314 0.348228319048 0.63265180011 0.0356430728268 -0.250743798298 0.0897361332926 0.175069452827 -0.0732104541387 -0.0186659261685 -0.573864014414 -0.366274887392 -0.235997239313 0.236871739591 0.260236528542 0.465218656712 0.0244052514825 0.126502378125 -0.425678428826 0.670411599467 -0.262409842776 0.381720364435 -0.421145525458 0.132200440201 0.879752702979 0.251681592735 -0.0339285644487 0.534789716291 0.310680965281 -0.364361681445 0.0536162286394 -0.27764368757 0.301334408923 -0.0124242962933 -0.0739007836261 0.0513651997185 0.200766453108 0.199324107166 0.52807401175 -0.27512102463 0.13352251176 0.524255672712 -0.506787160541 -0.478481522572 -0.218487809042 -0.0138739161385 0.316189794834 -0.107325004047 0.179184311188 -0.0581853703844 -0.453096830515 -0.445831336947 -0.609291943266 -0.414201974711 -0.179141734344 -0.238816066891 -0.0979759618206 0.577012909043 0.404072002728 0.155773957637 0.100600393847 -0.287469584692 0.520103177002 -0.0314869227415 0.504097754365 -0.00764261226259 -0.350269873048 -0.139760024177 0.00662737034063 -0.154114667774 0.257963207299 -0.0878154655687 0.222234000171 0.611916595305 -0.185672960309 0.260529042424 0.0365483169012 -0.253045287459 0.504763686617 -0.274440837146 0.0684821682894 0.0 0.455346951105 0.0371865831683 -0.245489541339 0.233753257967 0.216685602715 0.197340652401 -0.183333799227 -0.087747448271 -0.279506880484 -0.155455361798 -0.266914871608 -0.35148857647 0.0436662405778 -0.214932065163 0.117586829432 -0.218326679234 1.01888626404 0.0576459736795 -0.877010965952 -0.119176359757 0.107723181456 -0.177882368272 -0.270237324595 0.229362951892 0.143469827915 -0.606112165371 -0.0788432960415 -0.112906382653 -0.232770798553 0.469249694323 0.300358295449 0.267136079947 -0.469519063511 0.0869251895191 -0.302903835459 0.366204518943 -0.138775332822 -0.197701781094 0.647781206374 -0.203706467364 -0.0956743173861 0.242928956121 -0.321204886865 0.236323074123 0.047705425278 -0.0687076862677 -0.190771621324 -0.0939786135527 0.101235312055 0.179288585685 0.2457879087 -0.156524260503 -0.178070184233 -0.262908836035 0.731902695855 -0.19295085205 0.270921348603 -0.123838214208 0.768742101694 0.431023402891 -0.0886338612381 0.0312733403435 -0.0386222582262 0.12771964384 0.444346563307 -0.231557424486 1.00950626178 0.0683776142613 0.0190683075842 0.0210813136783 0.91169256053 0.205428686949 0.14126844946 0.0408813367628 -0.0412298935143 0.0 -0.104459063767 0.220531633519 -0.266261803372 -0.139894397631 -0.363566553637 0.37580097896 0.28656007309 0.0448904671067 -0.105834371859 0.0483172987324 -0.112020852164 0.308310325858 0.359383876333 0.0106352861635 0.354027981647 0.0971260324112 0.800838240423 -0.280263887888 -0.258898261328 -0.341482419275 0.553307800388 0.26700127357 0.0774824139381 0.179610925268 0.571117674836 -0.0283023757095 0.316139325667 -0.0635116837463 0.0570735970034 -0.378451323548 0.126339295006 0.50242490308 -0.109059162098 -0.493491166987 0.786703016485 0.408259347517 -0.259428861502 -0.26744802372 -0.312387927989 -0.198069480969 0.270215877649 0.259533585974 0.693651371869 -0.127836523746 0.446285989632 -0.0190120906107 0.0739526964931 0.122597365774 0.206177327638 -0.449295320989 -0.0458593134999 0.0969206397566 -0.306176612348 0.140061993447 0.00954793764703 -0.0157680336547 -0.183257559021 -0.466539149362 -0.0852481167888 -0.251809666392 -0.16205348932 -0.0380579204225 0.207382731128 0.206867111576 -0.0650587511057 -0.459519570026 -0.0277172018726 0.528192179238 0.242856279939 0.0548465715861 0.109185132923 0.165289559038 -0.00790239508963 -0.150236646866 0.0150549138279 -0.161907284936 -0.267019617167 0.0653680315091 0.652423021505 0.128054536543 0.353946171253 -0.239734335227 0.201569090408 -0.502057294312 -0.860387104235 0.335488216858 0.349311457457 -0.367420671126 -0.11809431521 -0.240134324649 0.0510852696944 -0.238312558965 0.622733720882 -0.0695914375399 0.608274755101 0.169633317225 0.219273165047 -0.123987096013 0.0792904089967 -0.25430008025 0.148191419306 -0.266651679338 0.478987404175 -0.134868358285 -0.42620870499 0.201320494118 0.269511017793 -0.200045932037 -0.160002411039 -0.0159499354032 -0.534395875381 -0.233757967985 0.0251834134164 -0.258828500734 -0.303062190533 0.232025035015 0.0710666225448 -0.275983519011 0.228205588259 -0.110641301615 -0.320095387094 -0.17924043434 -0.02678631534 -0.214034366879 -0.238127656608 0.0183085473888 -0.0549983103623 0.0961603369593 0.197039491999 -0.116895559008 -0.528093121017 -0.458992237578 0.283826223421 -0.0345797994102 -0.00538543774998 -0.00396990753092 0.255958609485 -0.0102922687024 -0.274196006607 0.727271867328 -0.104343593715 -0.0837377821845 0.31831364326 0.398478255491 0.283925773809 -0.29177969514 -0.0174666583788 -0.499911835024 0.0786017856895 -0.456973877805 0.109820105195 -0.184574971925 -0.153058655535 -0.0349348589825 0.342287191702 -0.532063768506 0.322310533467 -0.0362278311978 -0.107044128955 -0.290290141045 -0.418790183412 -0.413877901299 -0.13695726748 0.435402507451 0.387468290033 -0.130237840374 0.635326116074 0.0131871411462 -0.352072316089 0.0287254088115 -0.0837019754275 -0.636889223716 -0.062379095826 0.0928819716698 -0.0644974995228 -0.249967169495 0.0593880641272 -0.214603319923 0.119367520793 -0.589359461304 -0.160678284073 0.386550188012 -0.16559107584 0.125901662082 -0.347718448218 -0.316278477963 -0.00491884160928 -0.00224277507042 0.345947281371 0.149299582109 -0.482590628331 0.316510287439 0.104662004957 0.0923981132873 0.0896163889745 0.0327106336363 0.641907588583 -0.242729455906 -0.141210048696 0.0174573452389 -0.178633314989 -0.562232757464 0.174264955215 -0.286123925849 0.112496245512 -0.477591484689 0.509297768769 -0.0295993225641 0.0554495521864 -0.356460562427 0.46471709396 -0.626957348765 -0.219324994856 0.0408109299015 0.0578660138684 0.029260497449 -0.243412356871 -0.213993470553 0.236026888021 -0.467362912603 -0.3047138174 -0.119198393646 -0.283358388011 0.193964130591 -0.2161998968 0.375215124404 -0.0299605997502 -0.299320997507 -0.139832017133 -0.311545395413 0.097778662135 0.146555364005 0.961728748688 0.113192440254 0.0701359694867 0.100876056404 -0.419042649769 0.152256466538 -0.0189388437264 -0.207051429725 0.336061444422 0.0218473824266 -0.352150163142 -0.450103374816 0.0591207654333 -0.162943545533 -0.204388703584 -0.112137082413 0.951854549044 0.406982144976 0.276660729261 -0.0589301567589 0.0523219309356 -0.0563120849639 0.111167131273 0.0884831032105 -0.39452621233 0.321255089436 -0.0292853198442 -0.412616113581 -0.0774157283052 0.519750966846 0.36298969139 0.241676916854 -0.0375303034336 -0.138734588551 -0.374619434314 0.744247594874 -0.490072255618 0.615940441956 -0.00900472784492 0.0472297285509 0.385598775273 -0.431147206977 0.186101415026 0.388164241765 -0.242323000318 0.00228990258038 -0.223738730882 0.051690740845 0.197985554087 -0.641866464285 0.261910986054 -0.350341080693 -0.147484259474 0.19692518527 -0.153807424636 0.884909650502 -0.205978815143 -0.452986205197 0.35355622095 -0.506405714196 -0.325369184085 0.158376850097 0.233704309052 0.61584732851 -0.0320603951295 0.230590074617 0.0302335300256 0.114307412911 -0.280705409197 -0.324589734013 0.25892812481 -0.136252201755 -0.0567763536207 0.745868680899 0.354319344982 -0.102313763628 0.742285437345 0.346976296925 -0.136083405647 0.174806554476 -0.0303265598297 0.258719410022 0.58019103595 0.435607069205 -0.031601865236 -0.187599794349 -0.0623874637308 0.280803280412 -0.0114801424997 0.92786739436 -0.681463207518 0.170074334398 -0.157376498146 0.175621199296 -0.14755820097 0.103979843246 0.0773749736887 0.262132412021 -0.024430835516 0.538947848422 0.225163410208 0.0936453299881 0.0966515697882 0.0690360190325 0.222092019126 -0.0143145975591 0.517836364529 0.275559828476 0.0740717333921 -0.0883434231478 0.579356098426 0.53053510216 -0.0296608304541 -0.390846283666 0.211727454128 -0.019134654434 -0.428198176504 -0.292914459228 -0.0208682321518 0.541746604001 0.00277992037876 0.181184324105 -0.105767712036 -0.297913527659 0.654989777612 0.0271422986343 0.0900398178718 -0.199863790004 -0.213713535453 -0.112402911546 0.13979369956 -0.073847005726 0.150601974979 0.436212324759 -0.177281396115 0.038619952576 0.166281691242 0.527467561361 -0.0438176836476 0.10812139092 0.0135292231977 0.205460010607 -0.228861445773 0.148672523128 -0.33503519983 -0.414719526642 -0.00361925986203 0.59162212905 -0.155007174822 -0.325287870591 -0.656768991029 0.176687726463 0.0268266786709 -0.135489304055 -0.0509834424083 -0.166334933507 0.341082968348 0.40506772027 0.325296807012 0.304294287854 -0.191329303707 0.59870159111 -0.0519624978994 -0.381618081895 -0.146962597416 0.472751273391 0.155877059336 -0.380343444226 -0.261057965702 0.0321129184997 0.278607704326 0.0320486975616 0.42620052346 -0.102924138042 -0.00704012609088 -0.0764776032979 0.0591913497392 0.449637569455 0.0390081946036 0.0318993860583 -0.223740000279 -0.193034328178 -0.777694147326 0.807885430595 -0.332037722143 -0.189074889958 -0.160013555869 0.0117147037924 -0.975144803682 0.443516129735 -0.173417980031 0.0174488355544 -0.0311669913261 -0.314172916782 -0.2665698615 -0.344502314697 -0.18601222814 -0.235882950894 -0.138436007021 -0.172486187755 0.14085012623 0.401351705733 0.0667532764918 0.436739980903 1.20234287835 -0.451560104652 -0.39801088811 0.185857779348 0.294243581427 -0.492725230483 0.0435653964761 0.708693764315 -0.348941876369 -0.2494709089 0.17309408605 0.20289441601 -0.384417392328 0.106673341526 0.663045502638 -0.353063008884 -0.209650997492 -0.00326020820895 -0.0938523048741 -0.503608898885 0.438093322741 0.611294595823 0.343772259948 0.162378421018 0.0710049994959 0.673098721181 0.170962766119 0.119936794974 0.0215423651807 -0.179326362026 0.111655456723 -0.154320244478 -0.619734696401 -0.00727919755052 -0.266043436203 -0.055672201721 0.728201968183 -0.0711182462547 0.490360330092 -0.461555284291 -0.428717438161 -0.112975921848 -0.387998376389 -0.441792179831 -0.0770883145067 0.619575818271 0.278712281608 0.28219263113 -0.186933925253 0.441142673275 -0.0630174263364 -0.203956611113 -0.0816118030379 -0.389335257387 -0.114728669652 -0.203078632713 0.0188370829499 0.116730736134 -0.21587360391 0.0423323266187 -0.0547139735357 0.206806474072 -0.0446031227565 0.503527384589 -0.11567440189 -0.385992245849 0.537264362772 0.00267777782936 0.145540954583 -0.516428147132 0.540141294827 -0.0151281267119 -0.349205463843 0.00151221160437 0.154560974793 0.0430843221229 -0.0136969489006 -0.527715086256 0.136479142127 0.590425123779 -0.245041612007 0.458823010745 -0.381133335797 0.23661146111 -0.189574236365 -0.0542389381619 -0.467389006676 0.301369060203 -0.101914304603 0.438652903876 0.435314117986 0.0163277273704 0.181572479452 0.166067706142 0.344214775038 -0.381897636764 -0.0117137795309 -0.049299048203 -0.0333770716534 0.0394131409367 0.700721472385 0.12922587505 0.118235370685 0.0787970309574 0.437738407767 -0.185575067035 -0.131053764838 0.204100644319 0.258420234013 0.54384109466 -0.0810682380667 0.384055711892 -0.292554688323 -0.0140920723907 0.275662721328 0.616661551918 0.0346006837397 0.00428164304381 0.146689646414 0.206725057431 0.153796075935 -0.129072136417 -0.175158902021 0.578740053742 -0.143183274218 -0.0232585844897 -0.488482021601 -0.0250274164075 0.177780005543 0.419691048534 0.066821719659 -0.10093466294 -0.189552269442 0.0951548197227 -0.481174209668 0.0712764709812 -0.224703030791 -0.03697330906 0.807102495244 -0.475808124334 0.311762903866 0.405197886625 0.191423264487 0.11070221221 0.334718896948 -0.140991047843 0.308373469753 0.158317435702 0.44493712177 0.782644892206 0.240934380872 0.384557002483 0.203865661268 -0.084128402878 -0.943484331278 0.350727624635 -0.521712194395 0.651159239676 0.417621064639 -0.291101507548 -0.150019668954 0.0158546835496 -0.201321997111 -0.569281346546 -0.0576058174745 -0.0374259868435 0.355490845 -0.141623356029 0.149163675576 0.277163699476 -0.0554217451513 0.433294620206 -0.0808680342712 -0.291515331603 0.182284860434 -0.207933762829 -0.14625876254 -0.334363370454 0.824085948415 -0.026414176075 -0.461368364839 0.532038209496 0.169654295637 0.931639136197 -0.29688985008 0.311213903759 -0.934061298947 -0.103084730055 -0.354661118943 0.173080799808 -0.0187320468652 -0.224284085732 -0.0928550813447 0.183485177568 -0.0335781494329 0.447688783906 0.115976108418 -0.370557479439 -0.104242058261 0.344381213584 0.136436538901 0.621912540151 -0.0364505402479 -0.147262820203 0.463704648231 -0.221834631417 -0.400866460951 -0.116485916377 0.292048464501 -0.0574124028529 -0.107286433032 0.360691874966 -0.145346407537 -0.179741668894 0.11923847529 0.175212038704 -0.631458307177 -0.0622686947641 -0.143320496057 -0.0918629806837 -0.00779807321191 0.0609360966 0.344430250369 0.254000925058 -0.138613164938 0.0874946718872 -0.196637833787 -0.318778833152 0.322754919043 0.152825039429 -0.146371834066 0.280080379802 -0.387485279346 -0.152999892593 0.750380125721 0.464464961631 -0.0566812463822 -0.23351269432 0.458263099366 -0.019852677561 0.119198692839 -0.213867799332 -0.0236719622361 -0.141082648475 0.674225334589 -0.313560560385 0.172158391327 -0.247283058782 0.37759724845 0.275289315267 -0.230079544749 -0.261542455211 -0.00550915225835 0.159102033817 -0.03953001711 -0.22902016136 0.683180260987 0.0347622587218 0.336752292508 0.0400472090072 0.483961717443 0.465141865916 -0.201848938837 0.256149607191 -0.224504841015 0.277062307373 -0.141402135172 0.00796622850729 0.630117858177 -0.0346833529042 0.0215084271502 -0.0703861792682 0.124681896368 0.0799861191614 0.296545792054 0.259070788531 0.0109518554912 -0.183368837222 0.254647304675 0.627051680302 -0.15579151853 0.152729927199 0.257363551256 0.0208358079094 -0.20116186895 -0.144083812985 0.108759534777 0.252062092422 -0.0344790749383 0.120334254816 -0.214502234333 -0.0444024983597 -0.159412615983 -0.0710992952109 0.727819625467 -0.399109653527 0.847381816909 0.633533630861 0.476880788067 -0.143198309484 0.372387322138 -0.0815004291627 -0.0496726560295 0.268743804652 0.147490216932 0.429813991563 0.564766915164 0.0526236517995 0.0776357620682 0.171215312528 0.00861858127417 0.0894875661169 0.0546954215039 0.398644256458 0.112151268372 -0.241453812926 0.0366501197717 0.659391966533 -0.165290159633 0.306051865624 0.137396656513 -0.128074378905 0.323551387566 -0.0763657790373 -0.0950746857494 0.181889865955 0.194052173396 -0.0877882989338 0.284312481764 -0.463755788929 -0.154771665331 -0.112120437841 -0.266516932989 -0.0697266550066 -0.652750459182 -0.30682930746 0.601123480254 -0.272215562874 0.286992878561 -0.461237710868 -0.474193354805 -0.270388144486 0.494648252577 0.0179884307222 -0.0407160808134 0.65043892049 -0.052239797285 -0.100130657266 -0.415606548889 0.0571056650735 -0.0473931051525 0.204827471117 0.289413263687 -0.091719899861 0.418284727314 -0.0427114732931 0.383366938728 -0.106060535478 0.483851525048 -0.189977062234 -0.0534505623653 0.11875681747 0.401524051259 -0.173536359006 0.405534856882 -0.463785014388 0.406872583358 -0.0857582275735 -0.127211078816 0.289555510447 0.329184678257 0.113693959117 0.0600232281744 0.130584115296 0.917137602357 0.220880919478 0.0674319387315 0.143738907817 0.258441954372 0.511752935138 -0.029856710004 0.00830940987429 -0.323400742892 -0.0256743746998 -0.595064749502 0.146408423932 0.292421275082 -0.53616146847 -0.367937971204 0.0609096244293 0.991622582487 0.194116050579 0.139087706637 -0.0515885828181 0.0901751431268 0.232964382732 -0.363821630392 -0.11999779519 -0.518159476168 -0.00964514937596 -0.272119186313 0.987333622096 0.0 0.0191779606868 -0.0831180469996 -0.0506795391782 0.489241574981 0.376883903981 -0.363092949972 0.0819535666938 -0.465604542425 0.520727451661 0.0488535176256 0.14996074486 0.169440792066 -0.029291051058 -0.274801091279 -0.177640632278 -0.102279352329 -0.396570884544 -0.184054191043 0.169822900371 0.474989672017 0.285998099302 0.210579179465 0.299745172714 0.147193991859 -0.0361038169091 -0.211158461809 0.517595401589 -0.000673643865478 0.128344046422 0.262786939683 0.351970138003 0.253341106457 -0.1920284098 0.410141994901 0.278078957728 -0.122449755686 0.739384077155 0.00361468159407 0.0949551581331 0.136038847684 0.24885090795 -0.2698195189 0.171374960755 0.296101258633 -0.273287476369 -0.19143557788 -0.129813563175 -0.280120678102 -0.431713536294 0.264637096949 -0.187772344756 -0.062161626652 -0.163752407051 0.307484946615 0.169809867782 -0.314688094417 -0.486857905 0.0211902230336 -0.0710989797471 -0.00380021339144 -0.347202213206 0.126492294927 0.0200133828817 -0.197251661992 -0.17997350059 0.326961170984 0.71424938607 -0.0711099806224 -0.664850963927 0.256138361841 0.121843667581 -0.0934020228615 -0.338559416577 -0.171638954825 -0.0277741689928 -0.0407984223995 0.179091214413 -0.16008445499 0.175973203228 0.394819920439 0.0671309377957 0.172702872601 0.48696711995 -0.0959331004192 0.857838045363 -0.293016322027 0.152529279843 0.298408549036 -0.180405086281 -0.283741713857 0.0812840616728 -0.00952696915856 -0.0451798853537 -0.184163326304 0.271677962911 0.120318713514 0.0504283993584 0.37236286861 0.138846138216 -0.0663561507846 0.0451896076487 0.502781236592 0.0 -0.696730994243 0.0331706611415 -0.0765773907591 0.148983429424 -0.0969157766897 0.101159917256 0.34480376 0.289209648773 0.282720322672 0.200675995593 0.355704979123 -0.286171117241 0.242719029538 0.251535425711 0.34353850561 -0.222959948444 -0.0118545137492 0.173151745354 0.26807102655 0.179477437569 -0.394063187002 -0.251871858237 0.0 0.0401120815017 -0.0377896899326 0.569829462343 -0.451939683438 -0.0268431286735 0.809418127896 -0.280311938234 -0.544685347157 -0.386596192162 -0.224878836609 -0.142999097474 0.502561281318 -0.22894294567 -0.308923473358 0.0430982477571 0.219182200566 0.35284936181 0.752608387365 0.100070271716 -0.455994720528 0.330844454892 -0.263100373669 0.0486868235473 0.307864190754 -0.215025149114 0.22039413975 -0.0563077543731 0.129549957969 -0.180132862211 -0.154460133985 0.176372863081 0.105040764954 -0.142984138202 -0.571600510127 -0.125802487421 0.0190814422826 -0.119349857684 -0.228315789725 0.484563711259 0.162767458723 0.36195869133 0.0789372679835 0.215808052579 -0.283004260218 0.682110332625 -0.10071807311 -0.15583476375 0.107415565459 -0.0647038644956 0.986428300171 0.0306741381197 0.0471221521767 -0.292819657804 0.261126205578 -0.132498302255 -0.220124513444 0.0951193944077 -0.0616001421713 -0.838187372965 0.0906571638292 -0.334971361535 -0.535956587006 0.445817539961 0.125564570175 0.50403629475 0.195849682553 0.377787681449 -0.218215518844 -0.365193509954 -0.102116961373 -0.392522081224 -0.626076283044 0.486200343405 -0.211976104409 -0.141872048627 0.221554104416 -0.0471270605914 -0.53683324638 0.174187725346 0.0553008606074 0.0206440298008 0.0991562240419 0.0 0.172900528294 0.167182652336 -0.0418859755041 0.535858604661 -0.2620232589 0.710075272174 0.0518113813846 0.559477741003 0.177794066986 0.360811512387 -0.183669675914 -0.326960261672 -0.0290826659895 0.064054328099 -0.337696128701 -0.432566694152 -0.389677880559 0.158410856329 0.0282397223439 -0.56988102465 0.350040122201 0.448949179017 -0.341887271121 0.347665631787 0.0502325965298 -0.357241413789 0.627590882392 -0.05426494362 0.206835898883 -0.396130076941 -0.183276110262 -0.235371382575 -0.0898460480076 0.166177611898 -0.00834122678662 0.308328235851 0.270885263925 -0.0194510494023 0.0801991914988 0.336626951228 0.413170990505 0.133466967458 -0.188236898526 0.0374951367847 0.192463402502 -0.0172093693063 -0.0794746227733 0.981541856764 0.5552861412 0.290768117445 -0.0542211629108 0.432546742507 0.53871768314 -0.0375342157638 -0.0762121523907 0.308105533641 0.150093803473 0.280827548799 -0.0831672825906 0.000871478237828 0.093649763612 0.612461052948 0.125341901812 0.339160341316 0.0196050313139 0.132762012748 0.471187500866 -0.43273713997 -0.0892055295492 0.112189117112 0.219523060139 -0.475447310217 -0.0230938069573 0.302403001657 0.423257151472 -0.327693897121 0.309560737703 -0.0813832132436 -0.237571120171 -0.0612397944177 -0.24977613334 0.0316170680059 -0.0649682842443 0.54552884091 0.31291173026 0.0911047277437 0.316303458368 0.175575561205 -0.186495542442 0.0206059790678 0.187721678094 0.319043650506 -0.0118295309481 0.31660079869 -0.0732690210532 -0.0740481161193 0.472795144994 0.159262637197 -0.238232547711 -0.231203241321 -0.308571681131 0.162241094253 -0.0659119571843 0.0226761356575 0.255229364245 0.362078013434 -0.34574421065 0.18382585613 -0.592380396336 0.14314349275 0.739912640934 -0.167909393392 0.642721748595 -0.720085366846 -0.337913936842 -0.0774650539308 -0.437039338225 0.146331485146 -0.0185159400135 -0.335573948553 -0.451898078324 0.222600511111 0.315576229538 0.724902275598 -0.440816540841 -0.0836853635861 -0.0192030047545 -0.105095272551 -0.165633181989 0.0482602859949 -0.065928056968 0.148506300025 0.2040837605 -0.328177206289 0.322125151348 0.0455420567471 0.0389780685819 -0.0385543296622 0.182684381838 0.249988245152 -0.23536877907 -0.0315418339931 -0.445674273132 0.504318790416 -0.0656287896173 0.121326134989 0.223078112647 -0.534484776609 0.0228803990283 0.178774960654 -0.258984728227 0.0189040443829 -0.0176783547072 0.00404241839699 0.957383859071 -0.380245497271 0.0740409923104 0.392323537487 -0.986729892664 0.0462486883379 0.269481403355 0.071213897457 0.270750529168 -0.126584285773 -0.173633386016 -0.111535950309 0.521939947412 0.29546451244 0.212624095165 -0.309319515799 0.534548120382 0.526403880267 0.328482781417 0.294193590835 0.0377812772329 0.0373856864681 0.104142737716 0.104683273598 0.0393045062128 -0.147004829305 0.157742426782 -0.39695206729 -0.0895589283751 0.609662328417 -0.426813012348 0.21005191339 -0.31414422645 -0.2811976525 -0.0818910826104 -0.638066148091 0.151824672531 -0.172072269572 0.101480577711 -0.350191162119 0.166937933879 0.144454661469 -0.118275992782 -0.00912282771174 0.310672767366 0.133302702259 0.46150376239 -0.133581553045 -0.131856811629 -0.0819827615943 0.203046833949 -0.130162770611 -0.33229924763 -0.287886543115 -0.0303570276618 -0.4313001741 0.0509497024884 -0.209974558556 0.194167399817 0.416263059679 -0.300726553032 -0.542779834863 -0.304395911885 -0.425265286561 0.168107549808 0.00576003716644 -0.4328536014 -0.00906141127611 -0.287583515732 0.0964103227252 0.0617488758974 -0.277255829353 -0.289798041433 -0.734698418088 0.281690899138 0.454774403269 0.120460876898 -0.737516555746 0.0761402762831 -0.334982681137 -0.160572031429 0.125105306934 -0.431012754494 -0.157401737597 -0.230049716498 -0.147643873847 0.221568560355 -0.426180612084 0.548485230641 -0.547985296808 0.285460216779 0.235560850277 -0.243167977104 0.60441804949 0.0836056525795 -0.044271448371 0.198282640121 0.584138600519 0.165634632001 -0.15334804779 0.643984754169 0.167615302228 -0.0681887786769 0.251909935976 0.475975415209 0.35092898647 0.135052924467 0.563959962769 -0.141374637271 0.349564840588 -0.252334416228 -0.202375436907 0.120987084212 -0.344581813601 -0.232434125845 -0.152774230344 -0.0316984712194 0.258483744957 0.234796058834 -0.0580395789684 -0.109433696524 0.28284829052 0.362723887637 -0.260746526785 -0.224250442083 -0.00380450031808 -0.237460740248 0.189266169865 0.189626720792 0.228472788676 -0.602917548603 -0.321977853992 -0.142321945397 -0.264675697544 -0.231235510563 0.157456584233 -0.379706341041 0.865969829236 0.0222838064332 -0.81768326405 0.326804027003 0.385553104224 0.088482017147 -0.151662128413 0.245707846518 -0.0275956480149 0.244795657105 -0.0189873081786 0.610253487558 0.42817372253 0.283097487292 -0.486899942786 0.202554033789 -0.346828413105 -0.186125880861 0.476126494889 0.130490113985 0.0450657026957 0.0232853122401 -0.0117087542064 0.223715484297 0.178334090946 0.127117939594 -0.135200023683 -0.102356385299 -0.613681948684 -0.229163529291 -0.503950374171 0.218763109868 -0.221448270991 0.488524701695 -0.586667638957 -0.0919547300013 0.324205234818 -0.070561921237 0.115740700632 -0.516760745292 -0.0970484426611 0.236818039171 0.78099325914 0.316933061648 0.442349278987 -0.589932180149 -0.148685396439 0.357823790584 -0.0919255218021 0.327808736336 0.149330765489 0.598401597918 -0.291768008369 -0.12756634808 0.176518716039 -0.16509935256 -0.0151762311092 0.280456187021 0.367997971712 -0.80505166392 -0.0838115948239 -0.77466287723 0.238036456142 -0.565019102213 -0.213862900758 -0.174954578933 0.316145380421 0.0233955867777 0.644348877793 0.19935223319 -0.0053598760027 0.00426378683805 -0.344375734446 -0.120185909662 0.604015202398 -0.201588535827 0.292481248478 0.515590559695 0.0508958762134 0.206896321696 -0.257381377189 0.360881505811 -0.375254258126 0.00342496934588 -0.157812395005 0.0745497548018 0.0750108300628 -0.172163344075 -0.210301795654 0.38269795192 0.277255908346 0.21738500122 0.21424111524 0.0906886408301 -0.35707727259 -0.32966268182 0.0353452822106 0.381254728361 -0.0832485245658 -0.0127929459058 -0.0850358745144 -0.020189409546 -0.206256728092 0.24270980892 -0.0808474992879 -0.174971514952 0.3302985517 0.0139207837589 -0.0798467198247 0.0237682909413 -0.402520722702 -0.397284032708 -0.0457621213109 -0.263597195686 0.0295983711201 0.242085398152 0.0 0.192049616541 0.433169828526 0.278090129771 0.0735066033621 0.410937055516 -0.0723840867717 0.000219851464227 -0.285297256429 -0.509424559408 -0.16592771686 0.154492149159 -0.116492048167 0.454225735377 -0.30221325768 -0.0372202104631 0.156710023497 -0.314095414029 -0.551825650875 -0.21606485796 -0.0422455454957 -0.143938357306 0.0 -0.315490714506 0.324357220581 0.967746075732 0.23439596583 0.438395558696 -0.036666100541 0.447777615319 0.134880433585 -0.321753494119 -0.161951140906 -0.119188726308 0.0117215000892 -0.106651146525 0.292851065542 -0.135309763384 -0.32931604026 -0.18464600762 -0.0237069740968 -0.999645092046 0.0435851872988 0.0597671417482 0.459201098193 -0.567099798843 -0.0135445618485 0.0335075738387 0.0552990943604 0.0687400529068 0.469217320929 0.130712884769 0.283831046462 0.0871149056929 -0.146382754228 -0.0630407156627 0.368163839781 0.215528345816 0.201639375556 -0.0155611305755 -0.0695026614859 0.663772027334 -0.719881580696 0.198485691551 -0.394102279976 0.0247385500709 0.250377743954 0.0941906940009 0.0425367978051 0.0162149658268 0.0418799263778 0.456914207862 -0.21330098117 -0.0710800320351 -0.143745301307 -0.30700827849 -0.461181229211 0.00532182148969 0.168126257134 0.625028633608 -0.0725087584641 -0.329521266622 -0.0436399073417 0.234683976099 0.485653573134 0.362063300126 0.0497967016062 0.371075731941 -0.0985304077132 0.230398450334 0.323504754581 -0.193301965055 0.262708485634 0.250303219064 0.203143322599 -0.100556629024 -0.105564009148 0.0588715550243 0.177443254591 0.254671143311 0.389547626212 0.183160318771 -0.0967715706125 -0.341847478349 -0.214269339029 0.0810375421464 0.556737359265 -0.0773193318299 0.322737896711 -0.271495010695 0.66012095616 0.0577160609126 -0.0318663053562 0.120335257877 -0.18943018896 0.0895600497661 -0.213410856439 -0.118478007212 -0.972135121743 0.869509380977 -0.317369526078 -0.369244205224 -0.311018190161 0.120066947766 -0.210253684686 0.0641499891178 -0.40503297948 -0.138627553734 0.716323301993 -0.271366836309 1.15762980307 -0.148536316106 0.589156234144 0.398851173365 0.0384098361156 -0.0159704398122 0.0720204320217 -0.199556145748 -0.174886949564 -0.770253407456 -0.0652349402937 0.273228824792 0.461369693604 0.0346134262672 0.305788451589 0.0108068883881 -0.00791217912997 0.214447863263 0.434191278708 0.181760162548 0.625721518665 0.0909722113664 0.512796136097 0.687694572918 -0.686971353491 -0.0244180677477 -0.0374873269859 0.150684686692 0.504300568657 -0.16262089266 0.546973572336 0.69264654224 -0.0630754256472 0.4771336382 -0.253898741282 0.235116783181 -0.620524533608 -0.274622302059 0.212714360966 0.389120690967 -0.250655761544 0.0270958692585 0.441482181671 -0.316251848519 0.0223657819943 -0.174244281877 0.420858155204 -0.388858462236 0.186718384239 -0.176126400355 -0.364284520653 0.278374194322 -0.798510377548 -0.0890541495356 0.15754874519 -0.180272528888 0.101352638573 0.759615880304 0.0198615474066 0.038378129582 0.215893582121 0.84512105197 0.113299699206 0.106025258673 0.0289797768642 -0.0803717464189 0.435178714458 0.400110886597 0.0410000875926 0.0619168339764 0.0984781640626 -0.377767287312 0.208904334578 0.00728537006397 0.284035118502 -0.248792228944 0.0902687783493 0.255422313594 0.451346428636 0.117073241944 0.0911097336222 -0.222555534721 0.1589500018 0.413222626663 0.275156032895 0.477734005536 0.228125179097 0.383115267936 -0.264948942069 0.529723088592 -0.0260307815182 -0.0783897683526 -0.188499147666 -0.0439015549211 0.217419048067 0.257034944906 0.332219385604 0.459607216953 -0.0975413281478 0.0 -0.468765846909 0.351191969513 -0.0249072019713 0.0782734172867 -0.303912484203 0.0756317515766 -0.188201710547 -0.472652394513 -0.241737724666 -0.483946879715 -0.442248815969 0.6125345405 0.111285382479 -0.210506235226 0.786060513993 0.636358196043 0.217596976836 -0.369720210667 -0.00387905291771 0.213130166967 0.0624058878156 -0.342673548062 -0.335341797631 -0.0620348574757 0.330039437017 0.581784999522 0.42210711187 0.327340341951 0.138808824747 -0.0701289062615 -0.0944321527921 -0.0741899373542 -0.000319165584484 0.0402975293344 0.365136587058 -0.360929092203 0.59933389323 -0.0973565928221 -0.251621941637 0.267033180402 -0.341739077897 0.0780124472647 0.0339864651918 -0.059954242057 -0.486547576161 -0.360837732463 0.0675734221274 0.224627760333 0.247958562559 0.845630013617 -0.144218971844 0.183584234801 -0.207513352058 -0.143722005896 -0.181504689063 0.157833519172 0.278165037721 -0.349463123912 -0.0733253270425 0.120439515196 0.372066455043 0.663678166387 -0.127988530278 -0.20997721427 -0.236983400187 0.264455580966 -0.164724274999 0.357421491362 0.811754479191 0.299033821943 0.18169450419 0.214250339214 0.0218229493463 -0.130762647347 -0.0814084866381 0.0311367841842 0.36368006276 -0.434185929117 -0.303179820419 0.113392595524 -0.220541471765 -0.216722522426 0.0549945452459 -0.240695157185 0.450573093292 -0.0670839637074 0.0963034168083 -0.142190453001 0.233585235409 -0.342601053587 -0.183344246541 0.436649028476 -0.107195235779 -0.380969691273 0.295510078895 0.31658901467 0.95043610879 0.23185228167 -0.202801894177 -0.0181494400999 0.46162936937 -0.204293460666 -0.0788893361228 0.0293179852034 0.327056732587 -0.2310695274 -0.388513188437 0.392505245113 0.322978033353 -0.071049113073 -0.331063540068 0.363681389439 0.0148713748246 0.297588170333 -0.124068192845 -0.179272912124 -0.676117028546 0.122497200516 -0.0518103726671 -0.0858398563606 -0.392360964522 0.0798750317796 0.019824595667 -0.175540570004 0.08007140279 0.422508266793 0.393970726314 -0.132005775419 0.0141514447109 -0.167158112084 -0.156024093232 0.0718695888521 0.0804181572902 -0.0883097240235 -0.0158862663667 0.429053953158 0.242252286005 0.0776915641128 0.117336583988 -0.407268212444 -0.04393545353 -0.383814064849 0.678631770338 -0.23976042618 -0.0873116100101 0.176922364568 -0.113320465013 -0.109156685187 -0.0504766648152 0.977219216031 -0.138023234261 -0.257361484185 -0.152451115842 -0.0651038292621 0.226228561378 0.266687178517 0.15502445682 -0.202687044618 -0.193262063641 -0.327158256459 -0.172221295208 0.498248613548 -0.290378627019 -0.494906538067 -0.232065337523 -0.534958618064 -0.580056456398 0.18971561387 -0.135110116222 0.108196848242 -0.271628612853 0.285459284768 -0.390241647573 -0.0594238615223 0.47030799858 -0.587217140214 0.454169107176 0.340938006269 0.0860595293838 0.201542803629 -0.124625560298 -0.58441244581 -0.68757488255 -0.567017858574 0.000178910559636 0.0453533321064 0.818878585267 0.115717092339 0.202874175493 0.231923541262 -0.13913536277 -0.078935560965 -0.643115011428 0.242008494538 0.155246984291 -0.190494827171 -0.222381837212 -0.131692462649 -0.323653250966 0.172699595649 -0.0450080681711 -0.325313457415 -0.0490548257887 0.129815978348 -0.449849326792 0.183415436648 -0.177876360081 -0.227125749417 0.0306131258918 1.08351164938 0.472757859672 0.217636255829 0.181179746389 -0.134623206832 -0.441756607204 -0.216722273866 -0.0711930792211 0.204405324914 -0.039158447953 0.59510329564 -0.196796149075 -0.510803421055 -0.0847711561067 0.115228440957 0.808794407196 -0.0131294414612 -0.178139532348 -0.212648136737 0.0223101933203 -0.526527997376 0.202590225815 0.108867780633 0.533816335838 0.120829825313 0.0838353228176 -0.406732870082 -0.255582401206 -0.592630486638 -0.378640561159 0.102501160103 0.453352662123 -0.213846461808 -0.00470384892701 -0.0296293853143 0.319038614553 0.217838118278 0.391615220589 -0.0511129608264 -0.17992175184 0.0848903214924 0.028904759545 -0.686361138664 -0.16039583598 -0.0120963165793 -0.0952738768791 -0.309933693836 -0.232926395906 -0.509565491874 0.738023731419 0.279891937505 0.157724184883 -0.0470457765202 0.163745263375 -0.0500630226 0.212613024819 -0.553949661162 0.465832238954 0.164904833163 -0.229735655404 -0.103736435879 -0.00102349120698 0.0955602824177 0.244905953716 0.0562280690719 -0.130201337405 0.123928365315 0.428229044641 -0.516299695163 0.409221915208 0.195325516318 0.473178442688 0.00586181310628 -0.0132685754807 -0.412077891072 -0.282710101437 0.0796874761411 -0.199481045464 -0.428226842318 0.0447040775905 0.203709455886 0.61719950074 -0.0272047644566 0.0938542937675 -0.296934920434 0.0678501334417 0.0790271470658 0.143867272801 0.158185329703 0.45097620606 0.200331593977 0.764580736533 0.0 0.16296097487 -0.10883490041 0.0571235234415 0.0347545360348 0.0172472744066 0.573703276531 -0.220535127579 0.171688230219 -0.250582050931 -0.518041886382 -0.138881570451 -0.336018037913 -0.513600245404 0.0724613897994 -0.16344851499 0.0619165915716 0.714122592713 0.0406248196182 0.15243414421 0.0060855708222 0.409192325959 -0.186542627759 -0.0686457679785 -0.287899762663 0.39726107427 -0.0722792425239 -0.221093611948 0.0195009656936 0.202775471257 0.276098158673 -0.374124352704 -0.202045845413 0.322652094624 0.292053160992 -0.0312761636299 0.346593347686 -0.270147273437 -0.326823422951 0.032292306634 0.118716492871 -0.0107640779736 0.390929204482 -0.0357575566627 0.167260991052 0.154587639701 -0.00598685990324 -0.197373635594 -0.285368282222 -0.392374958417 0.119405220766 0.160759064411 0.107721325322 -0.00114071745563 0.290219647562 0.389204790857 -0.195300277819 0.164839600457 -0.138349777103 0.185191402858 -0.041844945367 0.200085992387 0.0829991201544 -0.323260670123 -0.0127006190228 0.63931872042 0.251276930031 -0.172361786385 0.00608298776808 -0.660206264531 0.771514727086 -0.34678960929 -0.361142458855 -0.0174683406743 -0.0763313341762 0.181511790339 0.283355991378 -0.835556306237 -0.435217146355 -0.452983382941 0.089002944967 0.193794032614 0.0172405275081 -0.393354542422 -0.321060417308 -0.427408349315 -0.144133512295 0.659798385308 0.0652082905795 -0.00893432404186 0.492138117611 0.409797774722 -0.241729755532 0.256235609234 -0.354626505821 -0.243857787064 -0.16168211373 0.0299966780702 -0.296055532921 -0.25178045995 -0.0560813065801 -0.489498432879 0.154467966757 -0.182728545 -0.573542301787 0.391977666065 -0.26868751504 0.140763348757 -0.00721779118794 0.214648193559 -0.55972298218 0.131664041453 0.0532397591509 -0.178356999592 0.141605458344 -0.260529216962 0.276553459577 0.358155243807 -0.056343910722 0.0620952099593 -0.861193332766 0.585576826584 0.0772882532405 -0.313496931127 -0.312258797169 -0.521089892628 -0.613518791269 0.437036147271 0.571856111475 -0.175324123415 -0.320486028176 0.249583069632 0.152744456764 -0.0793103614497 -0.0233865363825 -0.226931174721 0.106378163824 -0.349278337431 -0.138319659958 0.0331251147279 -0.0182314307014 -0.555234703483 -0.109344525941 0.0457160165577 -0.355897546529 -0.394702375535 0.0928627287119 0.164666248664 -0.127099010305 0.226079050379 0.129071612224 -0.6759263684 0.299171919824 0.446284685987 0.0352809147887 -0.096662263361 0.0435469620255 -0.594191210956 0.20704317908 -0.105847719225 0.121313111621 0.054674868221 -0.195174869319 0.0870000815738 0.365654270372 0.470372783216 0.159348332738 0.152459267401 -0.462178658041 0.29274999464 0.117526751086 -0.0106748058884 0.0354160003906 -0.248713918674 0.477594613371 0.198429398986 0.474867230298 -0.294829097558 0.518688169709 -0.392924380208 0.140806524848 0.0780720144711 0.263506016016 0.582748395753 0.231756985977 0.100032224566 -0.422812847594 0.529170476524 0.229875310086 -0.106433363335 0.285840290047 -0.101849812291 -0.30294633321 0.307130248348 0.580826678391 0.164867502023 -0.192804339711 0.33955927284 0.228333864225 0.0731339974152 0.206873024728 0.0412588168445 0.506178057772 0.205376703903 0.199375955435 0.313098423707 -0.118052488256 0.299819827474 0.263667349818 0.1824618176 -0.0843138067154 -0.117871508607 0.470906441754 0.131963521906 0.337972975379 0.333177361529 -0.289177429321 0.0806009271119 -0.147843686246 0.0433714535785 -0.525834028339 0.0301261465224 0.363298028983 0.167591712105 0.271537291501 -0.0441004467737 -0.497502014457 0.179386470122 0.0446105342676 0.255748523563 0.0808469070433 0.383201347918 0.387165992673 0.592391784541 0.62562728492 0.443060450066 0.488147338623 0.17722411127 0.0935691201371 -0.215010891105 0.233972276207 0.319325895292 0.191315097444 0.132509251145 -0.179751534932 -0.171558602129 0.295498222454 0.283897183081 0.257936948064 0.160112820438 -0.102686460919 0.555443136438 -0.152980609841 -0.205602654403 -0.064166197465 0.245086010512 0.26040152498 0.152208854789 0.489081288316 -0.204953975681 0.576233660566 0.485841122312 -0.166750591096 -0.27237055381 -0.50447284826 -0.263774812376 0.325975968617 -0.117008523923 -0.216458016672 0.219042302158 -0.0744935036532 0.0317455030631 -0.134515408231 0.373518480031 -0.0817137258386 0.227698427922 0.0896125580684 -0.486009780862 -0.139562394315 -0.0740590554464 0.0122864750022 -0.0147379894615 0.121178385308 0.32211809665 0.25535350455 -0.272706842788 0.276470266901 0.189446707769 0.113086537757 -0.000427141076179 -0.192524371805 0.0434348242554 -0.212899837718 0.224072589077 0.415095804317 0.251340021404 0.248045378862 -0.452191764616 0.0954497126384 -0.0613254907538 -0.742072607358 0.307983847023 -0.121866549369 -0.133903587042 0.117796730421 -0.0114388261225 -0.288367561362 0.621867419501 -0.325862362131 0.33209356478 0.115181949524 0.676094238499 -0.380141334151 -0.246741916364 0.598293655874 -0.00228299094495 -0.195575036977 0.000972413409429 0.0602825851461 -0.404907629677 0.239409346889 -0.283989059655 0.138823014918 0.136548100736 0.213004755853 -0.318860106365 -0.136702853719 0.461576922409 0.3451134341 0.105676475426 0.315672296221 0.31427084833 0.0375718668072 -0.0535673836588 0.9148160622 0.122839213609 0.183208439133 0.695298749558 0.160023360257 -0.55469863027 -0.0511164787996 0.775579398602 0.408086094335 0.00278154201081 0.148988763223 -0.122576151579 -0.00501399424374 0.0721002793334 -0.284270481859 0.610207625807 -0.712480247452 -0.0293908868983 0.282630554822 0.540555766588 0.300169711365 0.0273350780839 -0.126787825331 -0.106267833687 -0.141001363896 0.10174707932 0.0283697058062 -0.255631653351 -0.432114346018 0.131288071329 0.100785590554 0.196571376207 0.0194182892348 -0.239679109562 0.378174216776 -0.0367156492551 0.326221099105 -0.0604179762374 -0.163081237136 0.536339459139 0.189554090077 0.355894131834 -0.217360400124 -0.10098671516 0.549501308329 -0.105174081047 0.252556053506 -0.0918766233962 0.0460106295822 -0.0650954472248 0.133118183432 0.424018453174 -0.283400733615 0.281354951656 -0.192662841041 -0.0781140119671 0.186120011271 0.291846559834 0.418683899678 -0.133474946179 -0.00983697389913 -0.273892987486 0.0038259085063 -0.228576734777 -0.0243728700313 -0.602380362313 -0.285780085954 -0.138254737639 -0.407067394944 0.0195180124735 -0.423316675491 0.0762905180774 -0.314103634726 0.447953275342 0.349554701801 -0.252126410384 0.400802747568 0.081448281816 -0.24710886889 0.0797455065494 0.086306317174 0.561792146903 -0.147764653291 -0.177795712173 0.461259848906 0.611803009961 -0.317607761702 0.0206767291094 -0.180231320902 0.00697258529881 -0.0446609025225 0.420490540506 0.305551367661 -0.0349501068949 -0.419712199431 0.364014062073 -0.00930504429154 -0.260401470555 0.934804715093 0.0140684544283 0.445130369097 -0.315934681102 -0.077457571385 0.435367577936 0.141662840334 0.294053338035 0.0747535508341 0.557192663876 -0.0748832709344 -0.408775439115 0.683060276778 0.599406799707 0.485773444197 -0.120723939411 0.046207596616 -0.0354499596196 -0.568778581384 -0.237800073879 0.036626802888 -0.131572589883 0.467150722582 0.039433122027 0.426857522289 0.357367631483 0.542992575159 0.462891146156 -0.0858012927921 -0.00147774097226 0.368130962087 -0.0705007566263 0.0171327727463 0.460607550394 -0.0643999476881 0.00500546550054 0.494096826087 -0.143575096649 0.685777246919 0.218319279719 -0.411927623439 -0.147940062769 0.00964350518077 0.50137304799 -0.0601102118936 0.389806884009 -0.492724127282 -0.207842500863 0.54218719949 -0.0859154223433 0.147815107044 -0.046052775632 -0.250535962268 -0.183165073143 0.522906711313 0.0319878663652 -0.212624303684 -0.102380143929 0.0297073877564 0.175151544803 -0.162061997486 -0.757882477131 -0.136251792565 -0.227462161327 -0.164998802137 -0.271694541866 0.10274378661 0.0632629750242 0.126136231878 0.09679551008 -0.43258394928 0.324108609148 0.0629546722482 -0.404364395719 0.510217406448 0.226137060323 0.837657992153 -0.186501285401 0.127221133682 0.513711522212 0.649297941293 -0.039642356568 0.520896244184 -0.265179421457 0.217783421593 -0.0360156093129 0.302106013739 -0.0818760608871 -0.0748895447729 -0.265112789922 -0.120278480071 -0.200492446237 -1.19507863442 -0.524979229341 0.0582016745767 -0.118693140674 0.563806942742 0.450593296177 0.226548646866 -0.392479769111 0.595944106155 -0.0448250520399 -0.397219975272 0.208212480049 0.00795913498989 -0.53953560308 -0.0812423453106 0.172679579001 0.430248588063 0.754384697157 -0.18815850012 0.200020969399 0.230300579832 0.277492720911 0.057788818308 0.725346635331 0.446115293915 0.14844622779 -0.658569114078 0.0 -0.0898038184887 -0.0221896169561 -0.179872545224 0.0849670777743 -0.0906599626983 0.0794870517058 -0.352935386427 0.119121875794 0.354562776976 0.275352827472 0.479967678476 0.321125704124 0.408094453913 0.386875532488 0.0870617433602 0.239790320939 0.536371001448 -0.458400854371 -0.421017996583 -0.470681715526 -0.304598962624 0.81436116758 -0.432795949425 -0.0343749356567 -0.200241030229 0.0130714238677 -0.30535969422 -0.146495036929 0.269616608435 -0.3260932539 0.104050378586 0.577696908197 -0.231443664871 0.114531501642 0.164141881798 -0.014976335493 -0.185530943571 0.320779063932 -0.13082999167 -0.283445234947 0.321048409351 -0.0319137065419 0.318862252742 0.196762852878 0.579666798531 -0.281442288638 0.150167615526 0.241537840985 -0.0975732180173 -0.200396236072 0.387450556828 0.280446476598 0.346992073701 0.167207616866 -0.0215739981593 0.159157004898 0.0379662366698 -0.551686268883 0.708726569743 -0.0501364096267 0.322020734366 -0.110760190259 0.423582526395 -0.0537189005349 -0.0301446984267 -0.28081004411 -0.645679992431 -0.326026248144 0.175357314738 -0.234636654608 -0.0468699868866 0.320108347415 -0.394930285762 0.0577588304342 -0.015759438613 -0.0275182450196 0.0878975406157 0.194896537796 0.0993050176712 -0.0599897535848 -0.465171200082 0.00603732152675 0.405303049853 -0.304059944594 -0.0207676728663 0.347851593372 0.2543949442 -0.520569587861 0.0936958189798 -0.027506820686 -0.0567955871678 -0.101624817073 0.208647018771 0.429514334206 -0.717310463202 0.0961894433124 -0.111325862527 0.102682280827 -0.666812826918 -0.0801830398071 -0.227732563615 0.304981855625 0.907825690021 -0.262534109841 -0.10740357262 0.185895991246 0.0097151558534 -0.785539349774 -0.0424773115033 -0.0697601410715 -0.217171992774 0.0357679342952 0.0425030938252 0.290582957991 -0.276334262761 -0.0775169817888 0.211150993988 -0.289167726088 -0.353547739958 -0.164519898941 0.250066539971 -0.125336361126 -0.0321358675179 0.183226343829 -0.529748732602 -0.119222075543 -0.101813492428 -0.0483012989707 0.406570077508 -0.166631441648 -0.312276268476 0.388857071031 -0.522176308065 0.0807813382923 -0.353733992188 -0.0813915222319 0.270299303768 0.360426854297 0.227859596718 0.332592633712 0.128881456253 -0.224887661987 -0.107222676513 -0.259821300581 0.123615753283 -0.218000723316 0.260770191232 0.0983705673714 -0.408058714408 0.103314703856 0.38340127282 -0.364816715192 -0.157532867384 -0.506377521209 0.235684976916 -0.0363069307865 -0.0126563058971 -0.546200339428 -0.399632890418 0.353863568123 0.360971010217 0.513665738891 0.00467207062447 -0.174900978999 -0.263005850526 0.0876005584747 -0.0772545700205 0.037538025258 -0.343495862194 0.313987655012 0.204001967512 -0.0510310176999 0.0543056029359 -0.294861034585 0.330641165444 0.0 -0.0393805313904 0.108256271329 -0.10422379163 1.07107906128 -0.217716035859 0.420593241107 0.0716945397833 -0.255308714324 -0.127320947224 -0.268750852281 0.720881577062 0.114560574959 -0.250360061894 0.151020665635 0.129115849078 -0.0810059155205 -0.118268702117 -0.474821697337 -0.105370787125 0.00980530873799 -0.33245924051 0.142366881636 -0.0200924402092 0.0485436615513 -0.491616838475 0.466118573296 -0.103333918234 0.545046370234 0.0870740822444 -0.427983803637 0.596413745914 0.35620566581 -0.016842554849 0.255985896353 -0.129266173143 0.610472297061
-3.62983537784
0.181192407436 -0.0981107016475 -0.151360796645 -0.141582724318 0.273853787909 0.219666829039 0.117746788679 0.0305164695792 -0.131157082179 0.233258254504 -0.322525815402 0.274956315745 0.334745856747 -0.122103098153 -0.43757308887 -0.255234131606 -0.264247916318 -0.227481455792 -0.380239862119 0.0455865810356 0.179732704631 0.180765925947 0.0241165117475 0.0649142073719 0.053545531142 0.135940210189 -0.310944115167 0.376800114505 -0.238104540779 0.222914183205 -0.110954471996 -0.143403520803 -0.02945281545 -0.0365495694232 -0.089940231404 0.473693604947 0.0429044975802 -0.939983977415 0.263791568163 0.01325614543 -0.13989464006 0.22228941559 -0.0588687319179 0.0207833965775 -0.287184966306 -0.0624383629719 -0.0607241665151 0.16965152266 -0.0874240641359 -0.457160850871 -0.230080160528 0.103538534268 0.277895493891 0.325405844842 -0.0293921075331 0.0854076644546 -0.0264792309312 0.496028437949 -0.00212276638167 -0.263965463402 0.156232966237 -0.348995148191 -0.392275799655 0.151469197736 -0.341897310256 0.209387561316 0.42107096421 -0.0527828399837 -0.0678223038565 0.000339045818272 0.0124090461337 -0.676860015217 0.768339971022 0.06775959177 -0.0559075483316 -0.172983346858 0.099989560604 0.132545858471 0.644913060104 0.535186492534 0.180369029064 0.220749975294 -0.00841688934944 -0.0769998958191 -0.357354821972 -0.129497729817 -0.153166835765 0.562151097749 0.0886658662968 -0.214588152843 0.423381098181 0.0744894298377 0.372016585898 0.00372147016775 -0.0120603594064 -0.0747308413135 -0.0721345980745 -0.17264095009 -0.249198072638 -0.13157181032 -0.0564006678574 0.365641922897 -0.258442792376 -0.248733530092 -0.388865853793 0.0147433347303 0.209731274604 0.347793655429 0.093761084674 0.432423187406 0.459289955236 0.222985525276 0.579676348003 0.273690942217 -0.26086921612 -0.40530145136 0.179306400157 -0.143802452732 0.195718765967 -0.0010846706134 -0.384584446709 -0.302229937594 0.65727412163 0.944624652088 0.334564853364 0.245345264258 -0.00457326881713 -0.237240389122 0.022803865964 -0.511748260393 0.00153702090846 0.00555988508403 0.179904390631 -0.23952705348 0.300122900527 -0.396543340606 0.161261782278 0.287807322702 0.0299178107282 -0.109079930816 -0.169357845058 -0.172267575393 -0.151249398185 0.204255314039 0.231276205801 0.157043880723 0.523478867412 0.393447585559 -0.239335282569 0.0808819402231 -0.155174574407 0.115331059735 -0.00158533632332 0.392593534228 -0.122099328468 -0.490869968015 -0.119583446836 0.421555123588 -0.183424542555 0.268807951436 -0.0521037354402 -0.0471157454678 0.171707951587 -0.0489935499007 0.0599068670558 0.137812094052 0.357902920646 -0.0442564976764 -0.132007511196 0.474074704227 -0.115297441124 -0.0526090618441 -0.132257345364 0.163815323139 0.389815687865 -0.298237685761 0.0378649478294 -0.0876360777865 0.0128978458647 -0.186140481768 0.19555691167 -0.176624053147 -0.15473859177 -0.100963864849 0.192829101224 -0.0507076943578 0.523645679351 -0.643157624247 -0.341460093958 0.0971719465985 -0.442326000469 -0.652073239795 0.484368556836 -0.142750485314 -0.0204228262843 0.246344078414 -0.144722611902 0.0966749438239 -0.0661264008117 0.134284463831 -0.220325542121 0.341927361244 0.354415794818 -0.53091179663 -0.243701078345 -0.504393761137 -0.0645004649588 0.236106416081 -0.266295380623 -0.106379299401 -0.0724754415192 -0.123368266687 -0.142880599022 -0.236712546393 -0.10174276525 0.0115475948717 0.810313755543 0.138314105941 0.421653768033 -0.111074214806 0.220746715995 0.167790389187 0.169528979319 0.340023208866 -0.0523296518309 0.337841142244 0.0754934124514 -0.198521217931 0.131766951685 0.396154685054 0.30689828963 0.156870828908 -0.138653137981 -0.443570112013 0.0340061780762 0.132614827812 0.449170140633 0.0239686521518 -0.126447677296 0.473059792845 0.423284898389 -0.426730281812 0.136042505289 0.514804438371 0.281969491772 -0.728133247843 0.00861823592625 0.0328717044979 -0.293203484158 -0.361203532679 -0.0952747820806 -0.128462470956 0.0751650571458 0.285977103337 0.227601202216 -0.181572409483 0.198368222195 -0.340417628992 -0.371034595714 0.212678117311 -0.415499231781 -0.0944657690049 -0.227817103815 0.44917615654 0.143469315443 -0.617026092828 -0.200091898091 0.0629770086135 -0.156561333512 0.153217111737 -0.130096215395 -0.301643230024 0.164191608811 -0.164669819477 0.0442956756676 -0.174123756549 0.0935996070306 -0.073522045374 0.214891415994 0.551727704441 -0.180345313706 -0.138385897036 -0.0547310680156 -0.055399990131 0.136597754425 -0.314758333747 -0.116501443074 0.0673886259261 -0.542786476894 0.258125282365 -0.418349494616 0.44544881667 0.448131312464 -0.0406129988286 0.116753406521 -0.426450812124 0.153287661224 0.4522962304 -0.0960993030738 -0.290984655803 0.44366459599 0.254110025776 -0.0276838535007 -0.038958030927 -0.242373496543 -0.202719898476 -0.0610777001139 -0.473830458508 -0.473339255515 0.550448357107 -0.0683577924291 -0.34254094391 0.400370550661 0.238640045556 -0.1233106678 0.0116341506977 -0.0932182329402 0.542859494923 -0.194971948569 -0.20644074258 -0.0631665078993 0.262406689591 -0.449880047008 -0.128238194771 0.138895177978 -0.376841492576 0.285777988687 0.356697276257 -0.0151621284722 -0.0643580895554 -0.238340103675 0.46519685535 -0.29625943894 0.929863856001 0.20746967642 0.57097255928 0.218575543639 -0.0649931033449 0.0351070844032 -0.725148000092 -0.102488408309 0.0888047916481 -0.414135512638 0.384458481948 0.828332641033 -0.505963533081 0.029613134013 0.480472696265 0.547523417926 0.284918748484 0.282686580813 -0.0268355769832 -0.115141335776 0.156555222516 0.523069773285 -0.173574385948 0.151200604219 0.0274547980456 -0.125962749962 -0.525120448203 -0.429392287315 -0.115276918848 -0.406571524926 0.0184422705511 0.24092995176 -0.251050934414 0.20482435271 -0.214935076608 0.406520066942 -0.0244142061066 0.473842382906 0.314778709656 0.194385661109 0.196083253992 0.0298498311583 0.471880679913 0.0387808638387 -0.0546209083264 0.141130698117 0.684881548401 0.315641571579 0.475872802233 0.483581006258 -0.154819020291 -0.345102816015 -0.111989250514 0.0521890661614 -0.159465218982 0.0654250062794 -0.227648844192 0.479837599897 0.0 -0.158868269511 -0.584207860171 -0.144778911202 0.0839391891516 -0.2385215041 -0.0248288054277 -0.283376811067 -0.0435694808188 0.03411181984 -0.214740224585 0.0321362896676 -0.182969962625 0.266417042624 -0.50035978077 0.0391196552625 0.171524737845 -0.0390327633154 0.164253283187 0.326533825522 -0.0447605373705 0.0721795877866 0.235551969575 -0.506501958432 0.830796528692 0.629718390259 0.721810214473 -0.246843795613 0.16943772743 -0.0406669652462 -0.00273547931726 0.194856986201 -0.0320046292678 0.285152012434 0.507519702594 0.0130941013052 -0.188495270556 0.478842927572 -0.405559300857 -0.493151509549 0.0159624659208 -0.131376699173 0.123318890166 0.107859212621 -0.112782131351 -0.0434175218739 0.593535637226 -0.291311766433 -0.433553840546 -0.47623189331 -0.0112684733991 -0.186722158989 -0.122195528338 -0.413242131775 0.0815239571298 0.465429246273 0.149645542165 -0.37590960727 0.300738065089 -0.402424809394 0.19574328669 0.0128355608491 0.409740192605 -0.0530849768383 0.0514700839415 -0.237602864409 -0.173007453309 0.406681002348 0.432186743262 -0.167886681769 -0.0675088903668 0.0682611044437 0.567052033813 0.609621136511 0.462194831559 -0.0370547635304 -0.0142860826627 -0.056805626386 0.20052335313 0.315515699137 -0.0221172700348 -0.164605343767 0.195502822182 0.483366345782 0.0726031308842 0.153857100281 0.410609020894 -0.295831366798 0.0577126440813 0.200448968761 0.0261711634403 0.239398270865 0.152408540965 0.244636483134 0.384567596114 -0.155889457493 -0.338487886621 -0.247320474711 0.405686244579 0.107665851679 -0.158761997596 -0.209613401261 0.371690538148 -0.101848779181 0.291551089929 0.253238793997 -0.179851873542 -0.251913166561 0.533334926309 -0.251108991213 0.207406845875 -0.197508559852 0.261098094931 0.320879556482 0.0355784028783 -0.0451647332612 -0.238148448219 -0.26867113709 -0.0215287535994 0.208218839613 0.150798304734 -0.187756973821 -0.428984811899 0.0875134016008 -0.34895069094 -0.292837356118 0.251108913117 0.265750498419 -0.636652480311 0.173765259618 0.141063153741 0.108125809028 -0.362159239233 0.115120021508 0.0157548108416 -0.468953594343 -0.0925504722291 0.0241921284963 0.203145678089 0.0626793146469 -0.0233184330008 -0.377185277646 -0.617482328429 0.103844981068 -0.0893054984453 -0.10362268606 -0.100590965998 -0.116413474171 0.0307595899427 0.385315360769 -0.441529423146 0.347162678946 0.231943113513 -0.103081659051 -0.115019558513 -0.00247110908507 0.183837025987 0.252992114637 0.292209722901 -0.378337774109 -0.630981926008 -0.167679904951 -0.101118006213 -0.0364135200707 0.118350115047 -0.223387404133 -0.067940030069 0.140122310192 0.40656482125 -0.372790627827 -0.702793398447 0.508004817577 -0.232858961073 -0.199856288121 0.525501228691 -0.0190453902049 -0.117278436322 -0.246702759367 -0.199849141749 -0.0168515566594 -0.409720053178 -0.102261675243 -0.0556939891188 -0.433579586047 -0.879550822618 -0.099753974855 -0.965833414187 0.217435250009 -0.0230227540342 0.306690832996 -0.184730115957 -0.353571046286 0.690786210328 0.787682810978 0.468062102678 0.014937814071 -0.048774256299 -0.093824773464 -0.349650087717 -0.320425693999 -0.0100516213342 -0.116072018635 0.159747067261 -0.033720081867 -0.36082070563 0.148025619926 -0.0765972031384 -0.243675424679 0.265457069384 -0.198868720158 -0.13422634294 -0.0304214650131 -0.123373342285 -0.200308460095 -0.344130124373 0.0785148717725 -0.0933142862958 0.00895441580796 -0.382323955697 0.0825711963165 -0.0239417930593 -0.179915215519 0.456562639331 0.302274816762 0.376248243105 0.271206562275 -0.0823504963699 -0.319827958123 -0.0871476339016 0.12234931215 0.173874977911 -0.24794143921 0.102717720418 -0.152384410618 -0.184913168752 0.0686224426505 0.44925307918 -0.254241079122 -0.108689930847 -0.0480398709431 0.127156995756 0.583852172435 0.411524196091 -0.242169988331 0.253653972093 0.365132341473 0.658919468968 0.0214694611925 -0.239032001094 0.322076777195 0.0196134440263 0.167981270435 -0.483022530142 -0.44557364635 0.485106550844 -0.152771919929 -0.111255236082 -0.137809004756 0.179853979651 0.482823713855 0.234378635671 0.449605618401 0.242331095149 0.270883057367 -0.15444502851 -0.266964686984 0.0262622582219 0.0698067931472 -0.0475765438004 0.0393757226603 0.0728888940186 0.219195656021 -0.542877097658 0.368532800831 -0.153974636008 0.172643014992 0.437026438749 0.0878396901997 0.756509484289 -0.0568234465946 -0.013792394223 0.453496953872 0.602142194385 0.115837498051 0.0253978444752 0.495733411232 0.14071742919 -0.259517553369 -0.00808165283544 -0.0932839168103 0.174636364705 -0.292322418498 0.0853198622685 -0.139842030732 -0.500996046546 0.095806567649 -0.207134105517 -0.0923083827634 -0.300466146929 0.131582642449 0.202163958957 -0.410663765118 -0.419221797254 0.194223666557 -0.0466043531178 -0.0884057396858 0.0709659035906 -0.0902769310573 0.324078878772 -0.0160603757964 0.375116410737 -0.125416614297 0.199508600047 0.339131715259 0.74404606506 0.539038534756 0.0266629335109 0.333323207862 -0.366263010144 0.0599831090811 0.175495222381 -0.0317095867555 0.766036921695 0.00549730425032 -0.124156727374 -0.0932039898677 -0.430407425412 -0.0383855604929 0.214457544086 -0.0193557906237 0.121635617168 0.234092147206 -0.21731566647 -0.265760984883 0.175704335583 0.447759360261 0.368424013741 0.359006775429 0.341022386357 0.311548374062 0.206052836791 0.324501228437 0.0375789952159 0.227418425811 0.319971120308 0.00340972200217 0.142549196496 -0.020275712037 -0.318955206945 0.0808519880447 0.306763890874 0.40471863174 0.385430078788 0.21540662504 0.0339932350553 0.0505439965702 0.19498377835 0.210990526553 0.00298062865522 -0.282854197518 0.143866131105 0.295667126533 0.319500567184 0.237731278676 -0.18733700463 0.147037313683 0.182331374852 -0.328287649456 -0.0311660787716 -0.0178294039402 0.384493548 0.367909419517 0.0058103316378 0.398189382734 0.280537416353 0.265827871767 0.0534268529068 0.123045529603 0.0931059854834 -0.126788207535 0.0390876558922 0.159209694167 0.0785623556665 -0.27888098197 -0.515354193819 -0.0178705354646 -0.114609008403 0.301680071956 -0.200702726229 -0.267771267187 -0.051002686955 0.0160944103053 -0.4283837023 0.0287658934904 0.17705746918 0.0170022786759 0.332858701732 -0.0914171880154 -0.142010238287 -0.286371322398 -0.189139292683 -0.196192589021 -0.0455512319591 -0.161431703753 0.116692447797 0.0694818664479 0.157513149237 -0.106981857133 -0.623428225834 -0.095801350113 0.180524204298 0.0140624280368 0.37099810197 -0.458535329542 0.352895230021 -0.830519161635 0.108403143838 -0.0559450240101 0.529193660973 0.282389476379 -0.0673159424576 0.0811970534638 0.0605617386371 0.22584448832 0.392732951027 -0.350664145599 -0.0936642308041 -0.138573735107 0.126796953643 -0.200417185624 -0.145565783151 -0.197228074661 -0.0978952766517 0.12267401081 -0.204021579424 -1.19902577409 0.301273234099 -0.119389786855 -0.357034530912 0.497217602656 0.215795517067 0.0097352287503 0.0353258895457 0.429747091104 -0.243396052331 -0.0432920744003 0.293137626843 -0.206120542066 0.125080979595 -0.280511987826 -0.0991842906408 0.115676079789 -0.653998321756 -0.207082503069 0.117301718205 -0.0524434763341 0.491290877905 0.917699393471 -0.400189073865 -0.457006197777 0.346599491729 -0.291202388375 0.155048567583 -0.47858494439 0.383838689353 -0.00316415142222 -0.27556995508 0.0339311680864 -0.190816736937 0.145701528128 -0.0163631591788 -0.489395119121 0.738959207617 0.0865630349177 0.120196640953 0.630684139447 0.231387558049 -0.185374497145 0.494452709504 -0.168598272677 0.00944186528722 -0.0842713335862 0.216813616175 0.0285862781287 0.468823912297 0.287254527149 0.294345886104 -0.198925119235 0.0976514969461 -0.149728503932 -0.25174304847 -0.0948537701777 0.337730180127 0.188852287257 -0.145952273218 -0.0332098912217 -0.0392290616282 -0.120140234198 0.178884941918 0.00153549261723 -0.0260548544181 -0.231311513494 0.0794650036563 0.265516247613 0.166942938266 -0.00229668814176 -0.558168901421 -0.40952127245 -0.196456202051 0.201574115679 0.486392643635 -0.0890784672685 0.1386501423 -0.217129942396 0.293329821803 -0.415763270375 0.190639395298 -0.0950171162179 -0.235180305816 0.0274055691257 0.00375568246312 0.165767993123 0.304137150686 0.345611188418 0.229589260542 0.394612768084 0.221243049141 0.531773489348 -0.241166310804 0.429932637328 0.11382234546 -0.181167297134 -0.340037119459 0.24671836774 0.320361739548 -0.683735336582 0.179140311562 0.147651858895 0.0195409324332 0.146664076424 0.184397429131 0.0744147315187 0.54118543221 -0.0792740575519 0.298615238928 0.34153595923 -0.195735089597 -0.0961962066508 0.0190202784603 -0.11791892215 -0.122226054076 -0.039987766751 -0.333063032225 -0.134261758649 0.131650908578 -0.0459040087417 0.0467780507375 0.227967986634 -0.326033158621 0.192839319054 -0.075162564038 -0.0832275469302 0.594482875119 0.179562602166 -0.0590726500149 0.488113587283 -0.309745094036 0.160337586218 -0.190165125684 -0.212441506082 0.245113418047 0.2645447658 0.0234631349258 0.0322984459399 0.0693117640848 0.183206563058 -0.0324519473908 0.175431740857 -0.212639086713 0.214296947118 0.403672836328 0.172550054058 -0.173991158726 -0.121645171632 0.186354580897 -0.323712570406 -0.549008778897 0.283195785419 0.275359267047 0.124404871108 0.492553856688 0.00914682102885 0.362082579508 0.274132470705 0.186641509969 -0.272796739268 -0.0931538711719 0.507331658063 -0.215803217977 -0.189031546437 0.206771539424 0.349024477344 -0.444018272551 -0.542368505971 0.143756730921 -0.153526126063 0.142985860188 0.0573904590613 0.143206231132 -0.0388575510195 0.361649988915 0.267144952491 -0.176879027518 -0.149649390765 0.0647064834923 0.0588099893669 0.328448820196 -0.276105166113 0.636908415242 -0.273432302799 0.0902286790161 0.251629312042 -0.247049040508 -0.347853886572 0.300962339523 0.001787220663 0.31822926172 0.266511424596 0.444069399899 0.317176172628 0.0582019398056 0.16175539728 0.483322748203 -0.156726285769 0.217478640952 -0.134413950062 -0.127464601661 -0.22789093656 0.113331013553 0.144981783413 0.59914538141 0.379542307549 -0.355329129112 -0.274797999388 0.32248684525 0.124134820041 0.735135782229 0.512287666535 0.0715141349223 0.149860471341 -0.196193645559 -0.202164852635 0.253574230857 0.0898300764389 -0.178367034787 -0.560122059977 -0.116959086343 -0.366011132119 0.143899983275 -0.0491347099345 -0.318045005562 0.232633980655 -0.0692304010734 0.042478547862 -0.270619991381 -0.0271489645323 0.0129108066329 -0.18844480372 -0.278116614147 0.242440568539 -0.0130561466241 -0.387551797635 -0.346258936706 0.466434068389 0.00329074030258 0.472140618655 -0.293168936287 -0.230809301351 -0.0400607480324 0.0810850723131 0.630216002095 -0.142560591222 -0.243498618024 0.375383960926 0.453747965027 0.236429852731 0.498810772186 0.0295941410728 0.0385064282818 0.00461672280852 0.398025781089 -0.350189051336 -0.167000763425 0.159572087774 -0.193127118558 -0.517810586995 0.159650513693 -0.043899233967 -0.151934158135 -0.163869296127 0.123472906797 0.0902408703146 -0.175243160029 0.013853313935 0.174158916815 0.329540784751 0.045595411118 0.351617484659 0.603235611728 -0.107924456312 -0.118012200057 0.0612114115285 0.42543350043 -0.560141323442 -0.219121776462 -0.0431075206392 -0.068597720557 -0.321372837559 0.320489792603 0.0679729807505 0.0157921523077 0.0168609238703 -0.374086364065 0.343748970624 0.170734171348 0.254283641091 -0.26623809894 -0.233860408754 -0.066751076937 0.293854666126 0.029119739457 -0.162481257014 -0.0828278422169 -0.00501046183503 0.155153275192 0.138275182584 -0.73149951079 -0.0272412570428 -0.0188816017585 0.284474226025 0.144665649694 -0.105299762306 0.175546778116 0.0356632593576 -0.100452747007 0.144886557737 -0.286775662533 0.427706167453 0.146470205579 -0.0459526912525 -0.391474885776 0.0443257517839 -0.0335365895225 -0.0543648658182 0.137695803547 -0.228420664698 -0.225550524217 0.27766324981 -0.243701822804 0.0440605935609 -0.0872944044062 -0.0578258839519 0.0878990838811 0.408205251981 -0.193280505477 0.242326369129 -0.494106651982 -0.0972569797006 -0.175073863635 -0.0944616445484 0.0133206249082 0.117786745649 0.346240988055 0.0988306968529 -0.22740951519 -0.411470930944 0.305197884135 -0.506538597865 0.306262580157 0.328137523979 0.286098111831 -0.664353593882 0.234902454462 0.00396068898122 -0.145197120313 -0.146498291722 0.397586393758 -0.35549775192 0.321487343506 -0.0165685535572 -0.397217685183 0.143537656355 0.203868838033 0.344367499712 -0.209545868638 -0.540602673043 -0.0851676143495 -0.0253475758219 0.509099146342 0.0255340604007 0.106535722036 0.411841471685 0.169079669052 0.65072833665 0.0559078489367 -0.0894534154449 -0.587022914763 -0.0214557859512 -0.466560488775 0.367814017776 0.376105346738 0.199462898764 -0.170192788444 -0.437477439522 0.0489181418829 0.148634748479 -0.303383541544 -0.122157932587 0.10187652769 0.0696418078329 0.00586809668379 -0.210509526968 -0.153427238462 -0.282139909996 -0.133334023287 0.105372034942 -0.0778310519108 -0.156559540337 -0.148543954897 -0.191429243687 0.486607913546 0.0479065097919 0.182492669236 0.213935438245 0.413589306669 -0.466979559347 -0.182101600831 -0.113163345354 -0.213059357737 0.0946261612063 0.0205631420552 -0.00693381776898 0.31943351622 0.442356649796 -0.342705951569 -0.211439757518 0.419731518626 0.160358724436 0.315034911605 0.47911677196 0.062747992841 -0.02116728403 0.191683418419 0.204025508702 -0.234070252698 0.892068034779 0.229787643777 -0.0192324905009 0.0800151070845 0.080369972818 -0.358693547104 0.029476432605 1.05126327252 -0.122710207067 0.345311040724 0.263532895627 0.353838840225 0.36071532762 -0.629433403865 -0.35673227664 -0.059248427344 -0.281849517304 -0.529088582683 0.40290956001 0.0467099883708 -0.0785617047995 0.200530406513 -0.380886930412 0.0 -0.102689644646 0.144312112296 0.580639631948 0.134324289646 0.483089197793 0.0629819014727 0.0978894487071 0.0313318473527 0.200012001913 -0.475435605026 0.138705701247 0.42958474499 0.00925465643162 -0.173577313115 0.244695672109 0.472657103036 0.516781788012 0.256626105032 -0.179815727323 -0.223341927895 -0.0144377875267 0.0251994652303 -0.216590927377 0.0427912721606 -0.39245652122 -0.00795127516914 -0.0517500588042 -0.148920395434 -0.0787303251539 -0.253614681433 0.567459879911 0.223488637772 -0.260480022869 0.120954116534 -0.474605201306 0.360276941765 0.237610397251 -0.204668374375 -0.441824638909 0.179140105293 0.237951976165 0.271883640484 0.0835870771009 0.127510285769 0.142432227446 -0.206532173665 0.0212626759085 0.291898885364 -0.177233196935 0.100135744631 0.0320775629535 -0.385870170439 -0.548347342789 0.0787484982181 -0.550243630816 0.105647078249 0.453906161125 0.618944986635 -0.186645535404 0.470774226402 0.108540020337 0.301010798734 0.0832337355542 -0.171003242722 -0.38983837699 0.222318402119 0.0672196856035 -0.344756325153 0.0584071030417 0.0664090923198 -0.310440053248 0.127915541832 -0.0808179877966 -0.0717180394328 -0.200658618091 0.0 -0.288178551356 0.343571810751 0.194501297105 -0.170837637147 -0.105049074052 0.0850750917237 0.0925571525494 -0.0195602678106 0.0172713373749 0.472480041125 0.125954398641 -0.0155967478821 -0.0951447560002 0.167673390618 0.203482783059 0.487811878238 -0.205800243157 0.0443467587984 0.314206508979 -0.0261060089617 0.271596668823 0.380045340954 0.0682071547069 0.0712987478362 -0.120249249118 -0.115342298393 -0.0971749084091 -0.163422107115 0.114309185234 -0.0790261091152 0.0228105507225 0.315871000374 -0.0901007412982 0.179627700003 0.81453400354 -0.377431926478 0.40186325662 0.18682178499 0.0478913004899 0.145196736862 -0.100643756603 0.0133951853874 -0.0730919416438 0.221494251975 -0.0251797346286 0.25225236695 0.00447441597365 -0.265350274663 0.0618729742979 0.134848605674 -0.775663124088 0.0380751129056 0.364332923937 -0.205714533941 -0.0726572770328 0.0786127922813 -0.183560838756 -0.744939227691 -0.605604278415 -0.322749745745 -0.190153177553 0.00809273091377 -0.0665140681198 -0.417493798114 -0.229284705967 -0.0408104244682 -0.155428319799 0.0498606591706 -0.814985891101 -0.344605289373 0.103526698406 -0.0805671891894 0.162398007662 0.251367640983 0.481857640054 0.292582982221 0.483750230581 -0.0893292039261 -0.703895245593 0.460721762614 -0.246031555787 0.461761101852 -0.452801971632 0.175236635775 0.151314321425 0.494359484083 -0.149080108777 -0.142425507009 -0.342885933153 -0.188440262152 0.30475979564 -0.151018748576 -0.00298169699312 0.311603323248 0.117326707893 -0.00320073861712 -0.282256228777 -0.597260844019 -0.0227224137324 0.274857799986 -0.224948068242 0.399619125079 -0.0921588126814 0.224369972823 0.144455949585 0.19709028461 -0.600312129659 0.2011779447 -0.0132851802873 0.0110868373841 -0.0539438068986 0.259122240516 0.0548985930936 0.585115708144 0.622583556727 -0.411030147491 0.106252634123 0.385751804246 -0.127462413379 0.373470855315 -0.299563570127 -0.425365765487 0.100136935725 -0.273666817278 -0.29540338292 -0.0987205705495 0.498540821357 0.0117701612538 -0.514984011091 0.0430520901911 0.0368614516362 0.0715840172569 -0.46368255807 -0.104295204908 0.196826629835 -0.433974627843 -0.21214581359 -0.31922075853 0.0230902191514 -0.300834924833 -0.440035730449 0.662359946945 -0.198772013835 0.155297662663 -0.33237007483 -0.296316440539 -0.0257764373793 0.252873106079 -0.0957857552641 0.346598150197 -0.206629283993 0.143828944187 -0.142630348047 0.0278761097906 -0.279154578661 0.509984512859 -0.531536480334 -0.325230010273 0.310025919218 -0.0280000058519 -0.202879664867 0.384849915729 0.057562449852 0.389743916559 0.131020764875 0.31300759447 0.0689956268866 0.0869845724237 -0.20104007234 0.0165936295682 0.268723325023 -0.314886553111 -0.232520715166 0.648601318111 -0.433724788378 0.00166491151562 0.51409099915 0.171450585906 0.235105308559 -0.100171410718 -0.0707666685742 0.00126304927409 -0.399336941261 -0.00487074891425 0.667575021986 0.143670672055 -0.0519546638211 0.209305387635 0.00362309216989 -0.0539799762873 0.251701659939 -0.133725893749 0.0993310060414 0.690357553579 0.376348305643 -0.275260128266 -0.210916115705 0.0317737274692 0.0105423362858 -0.2178495811 -0.124888881193 -0.147713406121 -0.0918477292623 0.296045157604 -0.151964649948 -0.562528147934 -0.193594987549 -0.321978914737 -0.0654576293881 0.47373655583 -0.159539357495 -0.116818989948 0.50783028716 0.421868356516 -0.0209813158559 -0.69345178817 -0.198118796342 0.0149123376897 -0.166198690324 0.361543130086 0.274539324719 -0.50360695154 -0.116198649548 -0.288598025742 -0.261535981641 -0.681075399676 -0.301165126626 -0.0170419759094 0.452383201572 -0.094371976013 -0.219675111577 -0.060258559153 -0.202401164627 0.0160559868112 0.075117580804 0.313271198648 0.526684217544 -0.475297488734 0.0876062691199 0.0637387621231 -0.00815790859617 -0.18528930305 -0.26275854169 0.0614963595443 0.159003094365 -0.0891799333888 -0.074974585268 0.0782693234116 -0.303284351744 0.124205144731 0.0590715073488 -0.290464656331 -0.251597298266 -0.169124978218 0.358713869213 0.168301662548 -0.201741416812 0.148624438229 0.468317886923 -0.0701931009019 0.189891457151 0.0818993635239 0.0688268252439 0.198744460464 -0.32852429227 -0.174608587094 0.131900905753 -0.404675378217 0.165700939537 -0.421047305645 -0.0849072473872 0.309889941049 0.474672285233 0.0779475321492 -0.288541088658 0.0065930555948 0.0319776096137 0.228422720229 0.0995810868413 0.126832058039 0.17052471174 0.0736962590596 0.435465862025 -0.256011320009 -0.194904540623 0.22946713428 -0.124391003735 0.0574365910256 0.17460176893 0.074686954006 0.13652306058 0.43752948585 -0.303934497001 0.0323464951473 -0.329828529818 -0.220226016629 -0.243515208275 -0.407878694954 -0.215235007672 0.305498888411 0.164516421371 0.114551980714 -0.0905336069487 0.146152502232 0.435596167127 0.112137841998 -0.214411988649 0.0244472634283 -0.131178124713 -0.156833433709 0.20189363838 -0.12231182089 -0.125966302573 0.119850872646 -0.0164649282264 -0.0518436759003 0.548672911677 -0.0964520439489 -0.133007821263 -0.206990243297 -0.00283921867909 -0.0494122309071 -0.331262653095 0.186315917889 -0.0851841782608 0.230615643963 0.41437995403 0.874835925835 0.248375268073 0.0793840489324 -0.19418508555 -0.849723112539 -0.612829294256 -0.748758102154 -0.323777411433 0.0596178294089 0.0352859329486 0.1760354601 -0.183724973269 -0.0510632683107 -0.121110636436 0.139621780592 -0.263226900822 0.337326200666 0.53723098786 -0.0613555539251 -0.305048019187 -0.143845973456 -0.453417073623 0.480067491473 0.353407426654 -0.00428191379485 -0.101581419399 0.384070332447 0.0992890165989 -0.0492666501334 0.626392466802 -0.0828353281257 -0.622136614052 0.123115601793 -0.145193723164 -0.051585459677 -0.08952216659 -0.138665708587 -0.337868909122 0.0406110229288 0.152373768233 0.145321438104 0.151832811138 0.354638772811 0.313308389007 -0.457542063634 0.473524658973 0.550974740468 0.12693839429 -0.0477804004106 -0.158090485861 0.37670787526 0.0604717492636 0.0842450999302 0.0297140581449 0.112971169374 0.113655314022 0.375443212949 0.285796972189 0.142691029603 0.418496368547 -0.097450816133 0.0151891568862 -0.114563041835 -0.110628023652 0.226115304449 0.030946801825 0.132209268608 -0.183383559424 0.269465467562 0.504034549541 -0.351083427234 0.0372930192836 0.217165616912 0.289265577392 -0.26655491327 0.844311643824 -0.0292737124748 0.442011408054 -0.0486951441565 -0.465205322623 0.255073856556 -0.0912868080118 0.241356737806 -0.10209898481 -0.30083340305 0.625709530932 -0.154809802958 0.520540205898 -0.226525016091 -0.0698986842374 0.384219110391 0.145755468358 0.476689004342 -0.127517742634 -0.270336384949 -0.272172428253 0.415375256132 0.028793603324 -0.106002849353 -0.0620881007057 -0.208373709712 -0.0484307337813 -0.267690009633 0.118535364208 -0.204001335482 0.132426596002 0.439323165255 -0.119899021716 -0.0480070661978 -0.0813830113224 0.524658074454 0.106376679636 -0.041994445719 0.0107148624078 -0.325297104262 0.219761188053 -0.0605150111659 0.0699483542984 -0.272922771319 -0.451318975438 -0.0026953536763 0.34053543426 0.159286065928 -0.164273732856 0.388813869807 -0.0934357486701 0.426170068948 -0.135099442326 -0.253916666119 -0.412307349652 -0.348732808199 -0.536588063996 0.300204373737 -0.140947485462 -0.15875861636 0.26679316399 -0.121654007858 -0.128931239775 -0.0334630082641 -0.403928289835 -0.0264023179253 0.093106659121 0.289728083081 -0.0451954246891 0.0139407606454 -0.513334516891 0.45467120825 0.208696075745 0.279372971541 0.0280495274913 0.177681600297 -0.289025518699 -0.0516042201992 0.138130128198 -0.256978400138 -0.551168449998 -0.169243388055 0.353244590952 -0.181850922071 -0.0237843275416 0.724250346354 0.388262561615 -0.29709872902 0.0509042690003 -0.293403431035 0.276842957627 -0.217271456878 0.00340294361536 0.106346488174 0.231871035166 0.124846562876 0.127587316372 0.251637014343 0.020552573083 -0.270363552169 0.191349521971 0.116146432475 -0.319015114056 0.0427409102507 0.0215740901242 0.0708013248962 0.792969172076 0.00137959448236 -0.0454934909084 -0.0785523820006 -0.431293722009 -0.304322817354 -0.187617255003 -0.374310203405 0.347389677303 -0.199517281947 0.373392747046 0.455669233576 -0.415795100716 -0.0928314681234 -0.132987503863 -0.365313684736 0.0637785938336 0.0836006029316 0.221161692567 0.345680414587 -0.214686032824 -0.635231225163 -0.0805132180541 0.278110777507 -0.00921655653713 0.00576973423646 0.0146711627788 0.0763114202107 0.241077818624 0.14507968669 -0.126996382226 -0.144538752368 -0.15409505245 -0.0621015036998 0.530261972836 0.271913739955 -0.18304054317 -0.31867029941 0.0832260898865 0.704323523585 -0.230216825652 -0.158491455122 -0.244214119151 -0.141395485452 -0.0824635209811 -0.18943580149 0.565747089856 -0.28137736628 -0.0135437122834 0.104319911292 -0.417673698489 -0.161390840496 -0.324472234559 -0.0570778888105 0.252427877053 -0.536289245118 -0.111511160183 0.604972395051 0.150245101955 0.405371910864 0.0586494897307 0.134433429762 -0.377844039393 -0.149840315614 0.209114970035 -0.112620794988 -0.592205434813 -0.170042996291 0.407772172472 -0.15480553908 -0.0462892664312 -0.148093436275 -0.193386466529 0.246745605829 0.267054984144 -0.0276533841727 0.307132737773 0.198407306173 0.113773422303 0.414757611732 0.278468191963 -0.0309626015497 -0.0495359920423 0.725685456777 0.477362291639 -0.0712608948237 0.0175247914431 -0.126554047341 -0.278152819585 -0.064858529198 0.529767907846 0.166387212267 0.26537516395 0.144531959158 0.0394104013517 -0.340285355272 -0.105663675597 0.23717824061 -0.0474024736431 -0.366007679465 -0.341036187396 0.187852311845 0.475940841857 -0.208404047501 0.42387270522 -0.165765852508 0.350103916724 0.291436023901 0.362513424962 0.382899176398 0.414183321725 0.635274074842 0.121221950896 -0.138069018698 0.195285487442 0.191750900101 0.291490497603 -0.140649665523 -0.076378249276 0.318871237807 0.271800582133 0.0732231759444 0.266386907319 -0.35537505944 0.538004779708 -0.0381051920585 -0.272291211973 0.112609307114 0.00652520334582 -0.011765161477 -0.403396652553 -0.00417686539654 0.448171971502 -0.169561362542 0.884214739065 0.329524866254 0.0441843425288 -0.0296453110057 -0.345861788935 -0.113421628565 0.097987921785 -0.144318342117 0.327946036595 0.0888721097871 0.288256803946 -0.258680515364 -0.367535744238 -0.50950821564 -0.118479717108 0.109167118217 0.337188964865 -0.0714998221586 -0.0583768547953 -0.0722818646554 0.332896247989 0.0944378844544 0.124022426371 0.534275762967 -0.0235554410608 -0.00875813413246 0.00560861267768 -0.079493412671 -0.0827102692895 -0.0618963860134 -0.123703536319 0.279933976416 -0.0669641938755 -0.211882501756 -0.16265911967 -0.0466028569202 0.140401238925 -0.934350848947 0.00900596879214 -0.26051135188 -0.437773783071 0.137767083584 0.194474864313 0.204887570053 0.359785872266 0.0199763251267 0.504618479585 -0.0495726453369 -0.385759148818 0.0452447760126 0.321113193044 0.233712873247 0.483132975109 -0.0927323699345 0.563686654675 -0.217680012756 0.0667605861031 -0.0354293528606 -0.471961772262 -0.383228157816 -0.122922020733 0.104055946583 -0.0913083828498 0.289554830474 -0.0716167682698 -0.518282792062 0.169894859073 0.389850959179 0.213882675806 -0.340936660029 -0.12568055014 -0.124074959694 -0.712474582426 0.265132061981 0.606384707942 -0.298595352483 -0.0253883904353 0.592376854402 0.249227672814 0.207850016832 -0.177079457175 -0.728690037911 -0.248963393317 -0.0769984196584 -0.150602418998 0.0296655057785 -0.433758791056 -0.474270562295 -0.160202439144 0.121578003932 -0.0982006869643 -0.317762868111 -0.417413164151 -0.126739878445 0.486106358531 -0.461132308666 0.00888331907207 0.154929992317 0.0862299808835 0.306407157616 0.758873320334 -0.387832031246 -0.0853460950656 0.124884045799 -0.0352002260551 -0.644954295525 0.853560183762 -0.158428071045 0.244205206314 -0.20886039814 -0.141115808442 -0.156957093302 -0.0527226354756 -0.292351142515 -0.0946776750357 0.418430589094 0.298684348421 -0.00296188502239 -0.19024715946 0.117940870658 0.173032819062 -0.236774618413 0.0642163761464 0.0784456347086 -0.537439798926 0.0179492264749 -0.556267445824 0.169456782377 0.381611031841 -0.201870633862 0.011232105942 -0.359843124263 -0.0971803476296 -0.0903803366701 0.477425161875 -0.0664076335572 0.2187925752 -0.104633255628 -0.281657409405 0.21539980314 -0.0375703863355 -0.433625806382 -0.0150456113773 0.31805047164 -0.21934818439 0.282614761549 -0.0603818337312 0.386870167664 -0.435007058703 -0.112175482125 0.847871877639 0.631524344326 -0.400202288538 0.308011195365 -0.409164403076 -0.237679899841 0.279953042795 0.261302860862 -0.62954024683 0.260445322958 0.0857051610987 0.546897714331 -0.0565108435293 -0.0318012175866 0.27000761393 -0.235226408729 -0.345640108177 -0.295915347229 0.0725417587011 -0.0900628221084 0.108866397211 0.149340896899 0.173428565417 0.0814047348323 0.00735087741018 -0.0299192430196 0.082416483411 -0.00392867584375 0.143570001786 0.374873855406 0.0149466351257 -0.201758346419 0.113940406568 -0.0797235748429 -0.0916436177816 0.156836051266 -0.467486993219 0.0769787057958 -0.0403921372759 -0.212312272885 0.0553376493949 -0.0402397434502 0.0297834117696 -0.0143852618527 -0.112853613613 -0.177757952353 0.0 -0.222569190277 0.80977140266 0.109236543772 -0.189404045956 -0.443883770298 0.361839491864 0.137779722182 0.410767791703 -0.148099551422 0.533434210575 0.00441511175793 0.0631737548615 0.0291242165173 -0.168305342075 -0.187637519515 -0.21562495037 0.0213971924012 0.33370983466 0.562664409891 -0.47020051861 0.121172940405 -0.0508416414872 0.890485219467 -0.210199580597 -0.26623064114 0.612206516513 0.239811276977 0.0476688358038 0.121474227251 0.0958759878397 -0.0351551533975 -0.195512756017 0.261952723867 -0.112482550772 0.0207055555123 -0.192703733545 -0.105452247385 -0.0500152848255 0.0752607308131 -0.0430031203038 -0.275427745064 0.0189468354275 -0.12881465819 0.284141559227 0.10821307277 0.0293026922039 0.46472172467 -0.270678927844 0.31635222417 -0.361498262738 0.178674931405 0.0738951187157 -0.696235489346 0.411593246244 0.114516184182 -0.0363056640189 -0.244572861547 0.344401927302 0.228195310321 0.111318079651 0.423330186904 -0.130480317631 -0.801852753396 0.50433045848 0.356529849868 -0.0705199115173 -0.334951222257 0.103736322045 0.240902634299 0.38335141546 0.142186989769 -0.172085881787 -0.269426604675 -0.278720761861 0.11715824365 0.128929471673 0.0738043160472 0.166193361156 0.140076936466 -0.530218232486 -0.136560806009 0.631521473811 0.155214063266 -0.31780955789 -0.373999761195 0.754780338353 0.279874145158 -0.176388419112 0.125136773301 -0.312598146288 -0.110936168156 0.0659305912364 0.154425674853 0.206187815747 -0.0182900717345 0.095571105278 -0.186173307847 -0.192652389822 0.244170962227 0.126315680978 0.551167903123 -0.168855131507 0.0 -0.17552925664 -0.0996327937099 0.336305762566 -0.138521531376 0.31497762934 0.239030613824 -0.118258056422 -0.410960790234 0.365438583213 -0.325186179021 -0.454837794727 0.0948028632993 0.420953118962 0.509993155283 -0.0214117115454 -0.295596683762 -0.170321242682 -0.166500468897 0.262714183115 -0.231067497572 